{"features": ["area_util_m2", "quartos", "casas_de_banho", "area_known", "tem_piscina", "tem_garagem", "tem_seguranca", "tem_climatizacao", "num_suites", "localidade", "regiao", "tipo_imovel", "finalidade"], "categories": {"localidade": ["Alvalade", "Bairro Azul", "Bairro Popular", "Benfica (Inclui Lar Do Patriota)", "Benguela", "Cacuaco", "Camama", "Cassenda", "Cazenga", "Comandante Val\u00f3dia (Combatentes)", "Corimba", "Cruzeiro", "Futungo De Belas", "Ilha Do Cabo", "Ingombota", "Kilamba", "Kinaxixi", "Lubango", "Maculusso", "Maianga", "Miramar", "Morro Bento", "Mussulo", "M\u00e1rtires Do Kifangondo", "Nova Vida - Golfe", "Palanca", "Pango Aluqu\u00e9m", "Ramiro", "Rangel", "Samba", "S\u00e3o Paulo", "Talatona", "Viana", "Vila Alice (Nelito Soares)", "Zango", "\u00cdcolo E Bengo"], "regiao": ["Bengo", "Benguela", "Hu\u00edla", "Luanda"], "tipo_imovel": ["Apartamento", "Empreendimento", "Escrit\u00f3rio", "Guest House", "Hotel", "Loja", "Quinta", "Terreno", "Vivenda"], "finalidade": ["Arrendamento", "Venda"]}, "medians": {"area_util_m2": 360.0, "quartos": 3.0, "casas_de_banho": 3.0, "area_known": 0.0, "tem_piscina": 0.0, "tem_garagem": 0.0, "tem_seguranca": 0.0, "tem_climatizacao": 1.0, "num_suites": 1.0}, "model_type": "RandomForestRegressor", "trees": [{"children_left": [1, 2, 3, 4, 5, 6, 7, -1, 9, -1, -1, 12, 13, -1, -1, -1, 17, -1, 19, 20, -1, 22, -1, -1, 25, -1, 27, 28, -1, -1, -1, 32, 33, 34, 35, 36, 37, -1, 39, 40, -1, -1, 43, -1, -1, -1, 47, 48, -1, 50, -1, 52, -1, -1, 55, -1, -1, 58, -1, 60, 61, 62, 63, 64, -1, -1, -1, 68, 69, -1, -1, -1, -1, 74, 75, 76, 77, 78, -1, 80, -1, -1, -1, 84, -1, -1, -1, 88, -1, 90, -1, -1, 93, 94, 95, -1, 97, -1, -1, 100, 101, -1, -1, 104, -1, -1, 107, 108, 109, -1, 111, -1, -1, -1, -1, 116, -1, -1, 119, -1, 121, -1, 123, -1, -1, 126, 127, 128, 129, 130, 131, -1, 133, -1, -1, 136, 137, -1, -1, -1, 141, 142, 143, 144, 145, -1, 147, -1, -1, 150, -1, 152, -1, -1, -1, 156, 157, -1, -1, 160, 161, 162, -1, -1, -1, -1, 167, -1, -1, 170, 171, -1, -1, 174, 175, 176, -1, 178, 179, 180, -1, -1, -1, 184, -1, 186, -1, -1, -1, -1, 191, 192, -1, 194, -1, -1, 197, -1, -1, 200, 201, 202, 203, 204, 205, -1, 207, -1, -1, -1, 211, 212, 213, 214, 215, -1, -1, -1, 219, 220, -1, -1, 223, -1, -1, 226, -1, 228, -1, 230, -1, -1, 233, -1, 235, 236, 237, 238, 239, 240, -1, -1, 243, -1, 245, -1, 247, -1, -1, 250, -1, -1, -1, 254, 255, 256, -1, 258, 259, -1, -1, -1, 263, -1, -1, 266, -1, 268, -1, -1, 271, 272, -1, -1, 275, -1, 277, -1, -1, 280, 281, 282, -1, -1, -1, 286, -1, -1, 289, 290, 291, 292, -1, -1, 295, 296, 297, 298, 299, 300, -1, -1, -1, -1, 305, -1, -1, 308, -1, 310, -1, 312, -1, -1, 315, 316, -1, -1, 319, 320, 321, -1, -1, -1, -1, 326, -1, 328, -1, -1, 331, -1, 333, -1, 335, -1, -1, 338, 339, -1, -1, 342, -1, -1, 345, 346, 347, -1, -1, 350, -1, -1, 353, 354, 355, 356, 357, -1, -1, 360, 361, -1, 363, 364, 365, 366, 367, 368, 369, 370, 371, -1, -1, 374, -1, 376, -1, 378, -1, -1, 381, -1, -1, 384, 385, -1, -1, -1, -1, 390, 391, -1, -1, -1, -1, 396, -1, -1, 399, 400, 401, 402, -1, 404, -1, -1, 407, -1, -1, -1, -1, 412, 413, -1, -1, 416, 417, -1, -1, -1, 421, -1, -1, 424, 425, 426, 427, 428, 429, -1, -1, 432, -1, -1, -1, 436, -1, 438, 439, 440, -1, -1, -1, -1, 445, -1, 447, 448, 449, -1, 451, -1, -1, -1, 455, 456, 457, 458, 459, -1, -1, -1, 463, -1, -1, 466, -1, -1, 469, 470, 471, -1, 473, 474, 475, -1, -1, -1, -1, 480, 481, 482, -1, -1, -1, 486, 487, -1, -1, -1, -1, 492, 493, -1, -1, -1, 497, -1, -1], "children_right": [344, 125, 118, 31, 16, 11, 8, -1, 10, -1, -1, 15, 14, -1, -1, -1, 18, -1, 24, 21, -1, 23, -1, -1, 26, -1, 30, 29, -1, -1, -1, 115, 92, 57, 46, 45, 38, -1, 42, 41, -1, -1, 44, -1, -1, -1, 54, 49, -1, 51, -1, 53, -1, -1, 56, -1, -1, 59, -1, 73, 72, 67, 66, 65, -1, -1, -1, 71, 70, -1, -1, -1, -1, 87, 86, 83, 82, 79, -1, 81, -1, -1, -1, 85, -1, -1, -1, 89, -1, 91, -1, -1, 106, 99, 96, -1, 98, -1, -1, 103, 102, -1, -1, 105, -1, -1, 114, 113, 110, -1, 112, -1, -1, -1, -1, 117, -1, -1, 120, -1, 122, -1, 124, -1, -1, 199, 190, 169, 140, 135, 132, -1, 134, -1, -1, 139, 138, -1, -1, -1, 166, 155, 154, 149, 146, -1, 148, -1, -1, 151, -1, 153, -1, -1, -1, 159, 158, -1, -1, 165, 164, 163, -1, -1, -1, -1, 168, -1, -1, 173, 172, -1, -1, 189, 188, 177, -1, 183, 182, 181, -1, -1, -1, 185, -1, 187, -1, -1, -1, -1, 196, 193, -1, 195, -1, -1, 198, -1, -1, 337, 288, 279, 210, 209, 206, -1, 208, -1, -1, -1, 232, 225, 218, 217, 216, -1, -1, -1, 222, 221, -1, -1, 224, -1, -1, 227, -1, 229, -1, 231, -1, -1, 234, -1, 270, 253, 252, 249, 242, 241, -1, -1, 244, -1, 246, -1, 248, -1, -1, 251, -1, -1, -1, 265, 262, 257, -1, 261, 260, -1, -1, -1, 264, -1, -1, 267, -1, 269, -1, -1, 274, 273, -1, -1, 276, -1, 278, -1, -1, 285, 284, 283, -1, -1, -1, 287, -1, -1, 330, 325, 294, 293, -1, -1, 314, 307, 304, 303, 302, 301, -1, -1, -1, -1, 306, -1, -1, 309, -1, 311, -1, 313, -1, -1, 318, 317, -1, -1, 324, 323, 322, -1, -1, -1, -1, 327, -1, 329, -1, -1, 332, -1, 334, -1, 336, -1, -1, 341, 340, -1, -1, 343, -1, -1, 352, 349, 348, -1, -1, 351, -1, -1, 496, 423, 420, 359, 358, -1, -1, 411, 362, -1, 398, 395, 394, 389, 388, 383, 380, 373, 372, -1, -1, 375, -1, 377, -1, 379, -1, -1, 382, -1, -1, 387, 386, -1, -1, -1, -1, 393, 392, -1, -1, -1, -1, 397, -1, -1, 410, 409, 406, 403, -1, 405, -1, -1, 408, -1, -1, -1, -1, 415, 414, -1, -1, 419, 418, -1, -1, -1, 422, -1, -1, 491, 444, 435, 434, 431, 430, -1, -1, 433, -1, -1, -1, 437, -1, 443, 442, 441, -1, -1, -1, -1, 446, -1, 454, 453, 450, -1, 452, -1, -1, -1, 468, 465, 462, 461, 460, -1, -1, -1, 464, -1, -1, 467, -1, -1, 490, 479, 472, -1, 478, 477, 476, -1, -1, -1, -1, 485, 484, 483, -1, -1, -1, 489, 488, -1, -1, -1, -1, 495, 494, -1, -1, -1, 498, -1, -1], "feature": [4, 2, 3, 7, 1, 9, 2, -2, 11, -2, -2, 11, 2, -2, -2, -2, 9, -2, 8, 9, -2, 9, -2, -2, 9, -2, 9, 9, -2, -2, -2, 8, 11, 9, 1, 8, 1, -2, 6, 5, -2, -2, 2, -2, -2, -2, 6, 8, -2, 5, -2, 1, -2, -2, 2, -2, -2, 1, -2, 9, 1, 5, 6, 1, -2, -2, -2, 6, 2, -2, -2, -2, -2, 9, 9, 9, 9, 5, -2, 8, -2, -2, -2, 9, -2, -2, -2, 1, -2, 5, -2, -2, 9, 9, 8, -2, 1, -2, -2, 8, 11, -2, -2, 9, -2, -2, 8, 5, 9, -2, 9, -2, -2, -2, -2, 1, -2, -2, 0, -2, 7, -2, 0, -2, -2, 8, 0, 9, 11, 5, 11, -2, 10, -2, -2, 6, 0, -2, -2, -2, 9, 9, 5, 7, 0, -2, 11, -2, -2, 0, -2, 9, -2, -2, -2, 7, 11, -2, -2, 3, 9, 9, -2, -2, -2, -2, 5, -2, -2, 0, 0, -2, -2, 9, 9, 7, -2, 9, 11, 11, -2, -2, -2, 9, -2, 11, -2, -2, -2, -2, 5, 9, -2, 2, -2, -2, 0, -2, -2, 9, 9, 9, 1, 9, 9, -2, 5, -2, -2, -2, 11, 1, 5, 0, 11, -2, -2, -2, 9, 6, -2, -2, 6, -2, -2, 9, -2, 9, -2, 1, -2, -2, 9, -2, 1, 9, 2, 2, 7, 8, -2, -2, 3, -2, 0, -2, 0, -2, -2, 0, -2, -2, -2, 8, 9, 5, -2, 9, 0, -2, -2, -2, 1, -2, -2, 2, -2, 5, -2, -2, 2, 9, -2, -2, 0, -2, 0, -2, -2, 11, 2, 1, -2, -2, -2, 0, -2, -2, 1, 2, 7, 9, -2, -2, 2, 5, 9, 11, 9, 0, -2, -2, -2, -2, 1, -2, -2, 11, -2, 9, -2, 9, -2, -2, 9, 1, -2, -2, 9, 1, 3, -2, -2, -2, -2, 7, -2, 2, -2, -2, 5, -2, 9, -2, 11, -2, -2, 11, 6, -2, -2, 2, -2, -2, 12, 1, 2, -2, -2, 2, -2, -2, 2, 9, 9, 0, 0, -2, -2, 9, 8, -2, 1, 9, 2, 8, 0, 3, 5, 7, 2, -2, -2, 2, -2, 1, -2, 1, -2, -2, 2, -2, -2, 1, 5, -2, -2, -2, -2, 1, 1, -2, -2, -2, -2, 10, -2, -2, 3, 2, 1, 7, -2, 9, -2, -2, 5, -2, -2, -2, -2, 6, 9, -2, -2, 1, 2, -2, -2, -2, 7, -2, -2, 9, 1, 2, 8, 5, 1, -2, -2, 2, -2, -2, -2, 7, -2, 3, 6, 11, -2, -2, -2, -2, 9, -2, 9, 2, 1, -2, 2, -2, -2, -2, 11, 8, 2, 5, 6, -2, -2, -2, 5, -2, -2, 2, -2, -2, 2, 5, 8, -2, 6, 2, 2, -2, -2, -2, -2, 8, 1, 2, -2, -2, -2, 1, 7, -2, -2, -2, -2, 1, 2, -2, -2, -2, 1, -2, -2], "threshold": [0.5, 2.5, 0.5, 0.5, 2.5, 9.5, 1.5, -2.0, 4.0, -2.0, -2.0, 4.0, 1.5, -2.0, -2.0, -2.0, 2.0, -2.0, 0.5, 4.5, -2.0, 20.0, -2.0, -2.0, 24.0, -2.0, 33.0, 30.5, -2.0, -2.0, -2.0, 1.5, 0.5, 14.5, 2.5, 0.5, 1.5, -2.0, 0.5, 0.5, -2.0, -2.0, 1.5, -2.0, -2.0, -2.0, 0.5, 0.5, -2.0, 0.5, -2.0, 3.5, -2.0, -2.0, 1.5, -2.0, -2.0, 1.5, -2.0, 17.0, 4.0, 0.5, 0.5, 2.5, -2.0, -2.0, -2.0, 0.5, 1.5, -2.0, -2.0, -2.0, -2.0, 31.5, 27.5, 21.5, 19.5, 0.5, -2.0, 0.5, -2.0, -2.0, -2.0, 23.5, -2.0, -2.0, -2.0, 2.5, -2.0, 0.5, -2.0, -2.0, 17.5, 4.5, 0.5, -2.0, 3.5, -2.0, -2.0, 0.5, 6.5, -2.0, -2.0, 10.5, -2.0, -2.0, 0.5, 0.5, 24.0, -2.0, 30.5, -2.0, -2.0, -2.0, -2.0, 3.5, -2.0, -2.0, 221.0, -2.0, 0.5, -2.0, 442.5, -2.0, -2.0, 0.5, 430.5, 30.0, 6.5, 0.5, 0.5, -2.0, 1.5, -2.0, -2.0, 0.5, 245.5, -2.0, -2.0, -2.0, 25.5, 6.5, 0.5, 0.5, 190.0, -2.0, 7.5, -2.0, -2.0, 28.5, -2.0, 4.5, -2.0, -2.0, -2.0, 0.5, 7.5, -2.0, -2.0, 0.5, 16.5, 8.0, -2.0, -2.0, -2.0, -2.0, 0.5, -2.0, -2.0, 356.0, 301.0, -2.0, -2.0, 34.5, 33.5, 0.5, -2.0, 31.5, 7.5, 3.5, -2.0, -2.0, -2.0, 32.5, -2.0, 7.5, -2.0, -2.0, -2.0, -2.0, 0.5, 17.5, -2.0, 4.0, -2.0, -2.0, 506.5, -2.0, -2.0, 33.5, 15.5, 14.5, 2.5, 8.0, 1.5, -2.0, 0.5, -2.0, -2.0, -2.0, 4.5, 3.5, 0.5, 606.0, 0.5, -2.0, -2.0, -2.0, 11.0, 0.5, -2.0, -2.0, 0.5, -2.0, -2.0, 2.5, -2.0, 9.0, -2.0, 4.5, -2.0, -2.0, 1.5, -2.0, 4.5, 4.5, 5.0, 3.5, 0.5, 1.5, -2.0, -2.0, 0.5, -2.0, 3.5, -2.0, 202.5, -2.0, -2.0, 480.0, -2.0, -2.0, -2.0, 1.5, 8.0, 0.5, -2.0, 6.5, 285.0, -2.0, -2.0, -2.0, 3.5, -2.0, -2.0, 5.5, -2.0, 0.5, -2.0, -2.0, 5.0, 9.0, -2.0, -2.0, 262.0, -2.0, 326.0, -2.0, -2.0, 4.0, 3.5, 3.5, -2.0, -2.0, -2.0, 330.0, -2.0, -2.0, 4.5, 4.5, 0.5, 25.5, -2.0, -2.0, 3.5, 0.5, 20.5, 4.0, 19.5, 239.0, -2.0, -2.0, -2.0, -2.0, 2.5, -2.0, -2.0, 1.5, -2.0, 24.5, -2.0, 32.0, -2.0, -2.0, 18.5, 3.5, -2.0, -2.0, 32.0, 3.5, 0.5, -2.0, -2.0, -2.0, -2.0, 0.5, -2.0, 5.5, -2.0, -2.0, 0.5, -2.0, 25.0, -2.0, 4.0, -2.0, -2.0, 2.0, 0.5, -2.0, -2.0, 4.0, -2.0, -2.0, 0.5, 3.5, 4.0, -2.0, -2.0, 6.0, -2.0, -2.0, 6.5, 20.0, 18.5, 214.0, 65.0, -2.0, -2.0, 6.5, 0.5, -2.0, 4.5, 3.5, 5.5, 1.5, 725.0, 0.5, 0.5, 0.5, 2.0, -2.0, -2.0, 2.5, -2.0, 2.5, -2.0, 3.5, -2.0, -2.0, 2.5, -2.0, -2.0, 3.5, 0.5, -2.0, -2.0, -2.0, -2.0, 3.5, 2.5, -2.0, -2.0, -2.0, -2.0, 2.0, -2.0, -2.0, 0.5, 4.5, 6.0, 0.5, -2.0, 4.5, -2.0, -2.0, 0.5, -2.0, -2.0, -2.0, -2.0, 0.5, 11.0, -2.0, -2.0, 2.5, 2.5, -2.0, -2.0, -2.0, 0.5, -2.0, -2.0, 31.5, 3.5, 2.5, 1.5, 0.5, 2.5, -2.0, -2.0, 1.5, -2.0, -2.0, -2.0, 0.5, -2.0, 0.5, 0.5, 4.0, -2.0, -2.0, -2.0, -2.0, 21.5, -2.0, 29.0, 4.5, 5.0, -2.0, 3.5, -2.0, -2.0, -2.0, 4.0, 2.0, 4.0, 0.5, 0.5, -2.0, -2.0, -2.0, 0.5, -2.0, -2.0, 4.5, -2.0, -2.0, 5.5, 0.5, 0.5, -2.0, 0.5, 3.5, 2.5, -2.0, -2.0, -2.0, -2.0, 1.5, 4.5, 4.5, -2.0, -2.0, -2.0, 4.5, 0.5, -2.0, -2.0, -2.0, -2.0, 4.5, 3.5, -2.0, -2.0, -2.0, 4.5, -2.0, -2.0], "value": [18.965838527987344, 18.6803311583323, 18.12130463335152, 18.008577464357444, 17.337199985125903, 18.03221118728186, 18.406117233446924, 17.989897843244528, 18.51017208099752, 18.33729914588288, 18.683045016112164, 17.765135440021105, 17.540982659312427, 17.553180200057167, 17.50439003707821, 18.064005814299346, 16.69565118313578, 14.346139397261565, 17.12283514420382, 16.617384465508973, 17.034386422832473, 16.200382508185466, 14.731801689838349, 16.934672917359027, 17.729375958637643, 19.673443715304877, 17.243359019470837, 17.35562767370207, 17.281246492014, 17.50439003707821, 16.906553056777135, 18.215792735725195, 18.143558532427313, 17.96570339987086, 18.523246020859307, 17.672998353115656, 17.488998220428353, 17.147715103853763, 17.574318999572, 17.652122140153036, 17.57671069691365, 17.72753358339242, 17.496515858990968, 17.622173069956816, 17.370858648025116, 18.132998684833918, 19.064312718514362, 19.344001661413774, 18.643824303266577, 19.51904600095057, 18.951309000896888, 20.086783001004253, 20.36659089443625, 19.806975107572256, 18.83123859943152, 19.583831556883048, 18.45494212070576, 17.726756562304384, 16.811242881518265, 17.77253224634369, 17.543425812316098, 17.51309249925862, 17.589732093152847, 17.68353499820759, 17.50439003707821, 17.713392491729156, 17.370858648025116, 17.403607365124, 17.31618108319087, 17.147715103853763, 17.358297578025148, 17.622173069956816, 17.6723423928104, 18.025755147111028, 18.256191497839097, 17.983546431904145, 18.3466830976747, 18.418040148560735, 18.72078534381011, 18.342353849748392, 18.36938746009113, 18.31532023940565, 17.989897843244528, 17.547782432979474, 17.50439003707821, 17.57671069691365, 19.255890072933926, 17.380533365072438, 17.72753358339242, 17.29378331049244, 17.370858648025116, 17.216707972959764, 18.73640897428214, 18.38359677383716, 19.14985301533259, 19.11382792951231, 19.185878101152866, 19.20913810886209, 19.162618093443648, 17.770591780640817, 18.356764070413334, 17.822843761378564, 18.8906843794481, 17.379810254125804, 17.233237274364523, 17.453096744006448, 19.089221174727115, 18.90825678907304, 18.765351892155213, 18.68304508534293, 18.847658698967496, 18.826145858727198, 18.8906843794481, 19.33697147982652, 20.536936259959738, 20.093882021470183, 20.799300524149192, 18.683045016112164, 20.112817952247003, 18.826145858727198, 20.756153999006912, 20.29248292239242, 20.910711024545073, 20.71825329612789, 21.006939888753664, 18.991828525485772, 18.4404345935779, 18.799574763374956, 18.16920501630988, 19.143768938388682, 18.356506601898246, 17.622173069956816, 18.8460622898592, 19.17209683735327, 18.683045016112164, 20.127846859001725, 19.83481584908441, 19.253589871235295, 20.125428838008972, 21.006939888753664, 17.818362004361514, 18.07879764179705, 17.452393698727033, 17.36376059588365, 17.479733103661044, 17.370858648025116, 17.523282885915417, 17.54749648298539, 17.426428497635523, 17.201399084995295, 17.909855136853043, 17.024285072030857, 16.677711496036597, 17.370858648025116, 18.5159909328476, 19.24211925035566, 19.94294196519503, 20.36659089443625, 19.519293035953808, 18.961790164419913, 18.78387677669867, 18.904942117614105, 18.826145858727198, 19.06253463538792, 18.420680753952364, 19.673443715304877, 16.77661945461938, 16.380459992348886, 17.370858648025116, 19.77378255429372, 20.76841465689386, 20.71825329612789, 20.818576017659826, 19.552753198160357, 19.36675378048266, 19.52032848102001, 17.909855136853043, 19.644211045955927, 20.001417549773144, 20.18571935211579, 20.125428838008972, 20.36659089443625, 19.755681813316283, 19.227470124835843, 18.826145858727198, 19.428132257890162, 19.519293035953808, 19.33697147982652, 17.216707972959764, 20.482750286548825, 16.764447134524953, 17.794908315605472, 17.216707972959764, 18.951309000896888, 18.951309000896888, 18.951309000896888, 15.733985953444432, 15.176487367510099, 16.012735246411598, 19.27374421999507, 19.32837839077158, 19.115145136755846, 19.268872037644314, 17.896116510001796, 19.025269267161033, 19.96824325479604, 18.553782273343526, 18.7922443072814, 18.31532023940565, 14.508658238524095, 19.34731521065246, 19.83125575846904, 19.387163226482894, 19.899899668794724, 19.994998486574598, 19.92475814295086, 20.030118658386467, 19.6146032154551, 19.22939816731002, 18.77663153437177, 18.258161826219297, 19.035866388448003, 19.617483852685666, 19.701614592192207, 19.583831556883048, 20.460386845449424, 21.12873094572124, 20.12621479531352, 16.951004817371683, 20.579816220733782, 21.453226991111006, 19.92475814295086, 19.00501579878219, 15.894952224644102, 19.08276738813564, 18.990201356717492, 19.091277597070757, 19.187158707774614, 18.919725266866312, 18.592830089352976, 18.234351177809064, 18.951309000896888, 19.028690326037424, 18.8906843794481, 19.05629151535529, 19.11382792951231, 19.017933905917275, 18.826145858727198, 19.11382792951231, 19.722025589591222, 19.92475814295086, 19.11382792951231, 18.5159909328476, 18.91572412698351, 18.844692977954363, 18.6388344194311, 19.035866388448003, 18.506490429758795, 18.63657196028202, 18.757152987716434, 18.5159909328476, 18.24632736871235, 19.009379824772974, 19.088510121656228, 18.8906843794481, 18.97965216110974, 18.951309000896888, 19.02216690142902, 19.00846741441004, 19.035866388448003, 19.519150107678353, 19.017600405756028, 19.035866388448003, 19.00846741441004, 19.895312384120096, 19.701614592192207, 19.95987831476273, 19.92475814295086, 20.030118658386467, 17.851168396117274, 17.738530563204367, 17.69637396411727, 17.6867115897055, 17.699594755587857, 17.822843761378564, 18.07644406194309, 18.048166750497675, 18.132998684833918, 19.730613847210364, 19.859424326677853, 19.7454004433471, 20.312775562445587, 20.500122286882203, 20.125428838008972, 19.706271124788586, 19.554283262269415, 19.383350600627388, 19.526889479630857, 19.38961407941961, 19.20039432216276, 19.499090328704316, 18.603002309079653, 19.673443715304877, 19.755681813316283, 18.809195084613492, 19.48539148439307, 18.132998684833918, 19.839171031672794, 20.088387566397234, 19.71456276431058, 19.673443715304877, 19.72826911397915, 19.755681813316283, 19.673443715304877, 19.893333109427562, 19.48690512004069, 19.673443715304877, 19.11382792951231, 20.015261506243625, 20.16559375263794, 20.127023750753654, 20.088387566397234, 20.178538663228878, 20.435583765827964, 19.413932520666354, 20.448547723886715, 20.9055873945737, 20.35713978974932, 20.435583765827964, 20.239473825631347, 19.04975845573941, 17.822843761378564, 19.25424423813289, 18.951309000896888, 19.55717947536889, 19.806975107572256, 19.432281659267208, 18.117320938558887, 17.351863005292113, 17.216707972959764, 17.622173069956816, 18.88277887182566, 19.806975107572256, 18.420680753952364, 19.57375558038212, 15.5491905235302, 15.157294716780719, 15.201805169084134, 15.068273812173887, 15.941086330279681, 15.76142084987672, 16.300417291085605, 19.74501366790773, 19.844918856331983, 19.467757584785254, 19.567447175845526, 18.112531118465807, 17.867295523158884, 18.603002309079653, 19.64980091494249, 19.525013232063813, 20.29248292239242, 19.482376027045554, 19.35288246366625, 19.446977055487597, 19.36645268721095, 19.490772986576992, 19.544622280443374, 19.357084410306566, 19.257305026544035, 19.64961973558477, 19.583831556883048, 19.71540791428649, 19.061147672023676, 18.8906843794481, 19.117968769548867, 19.00846741441004, 19.17271944711828, 19.33697147982652, 19.00846741441004, 19.656422561594148, 19.583831556883048, 19.729013566305248, 19.79467277395912, 19.717899596105173, 19.729013566305248, 19.673443715304877, 20.178538663228878, 19.11382792951231, 18.968627729239596, 18.920130138188583, 19.00846741441004, 18.8906843794481, 19.162618093443648, 20.29248292239242, 18.270794657720806, 18.683045016112164, 17.85854429932945, 19.776679580180335, 19.902799907139947, 19.83919164117737, 19.762820834293727, 20.125428838008972, 19.672168833364918, 19.583831556883048, 19.701614592192207, 20.030118658386467, 20.030118658386467, 20.030118658386467, 20.125428838008972, 19.20913810886209, 19.965929711568478, 20.457751672748195, 20.21244021484709, 20.7030631306493, 19.63804840411533, 19.535178065870692, 19.6146032154551, 19.519293035953808, 19.843789080604612, 18.07210330994147, 21.230083439917273, 14.914123179965662, 20.138810756238517, 20.244545990504648, 19.80798092665199, 19.389554557320665, 19.297570272234626, 19.178335188252888, 19.11382792951231, 19.275096076363752, 19.49629541220419, 19.519293035953808, 19.450300164704952, 20.125428838008972, 20.12180070365048, 20.671972543611492, 19.93841009033014, 19.78500011668706, 19.715121103555155, 19.729013566305248, 19.673443715304877, 19.92475814295086, 20.245230037616313, 20.42430807562045, 21.369845382213857, 20.32153228142551, 19.283745286344388, 19.419893881797332, 19.29614948547293, 19.5023901460136, 19.493938701043497, 19.519293035953808, 18.603002309079653, 20.477200330687676, 20.228624156903358, 20.048311086589635, 19.97710757358188, 19.86586662526156, 19.92475814295086, 19.806975107572256, 20.125428838008972, 20.13138185176535, 20.137334865521733, 20.125428838008972, 20.697438139719033, 20.671972543611492, 20.799300524149192, 20.680580836511215, 20.722181109317823, 20.532841245628614, 21.453226991111002, 20.430576162797237, 20.544992592628887, 20.614919885065543, 20.72326583794641, 20.560746908625106, 20.125428838008972, 20.030118658386467, 20.894308258126202, 21.19335273657464, 20.979297550185578, 20.29248292239242, 21.208235759449966, 21.62146310935276, 20.535454883988077, 20.835075735028468, 20.942401367666296, 20.799300524149192, 19.33697147982652, 19.806975107572256, 18.616223382806336, 18.683045016112164, 18.683045016112164, 18.683045016112164, 18.5159909328476, 16.323260964377248, 15.201805169084134, 19.687628350256592]}, {"children_left": [1, 2, 3, -1, 5, 6, 7, 8, -1, 10, -1, -1, -1, 14, -1, 16, -1, -1, 19, 20, 21, 22, 23, -1, 25, 26, -1, -1, 29, -1, -1, -1, 33, 34, 35, -1, -1, 38, 39, -1, -1, 42, 43, -1, 45, -1, -1, 48, 49, 50, 51, -1, 53, 54, -1, -1, 57, -1, -1, -1, 61, 62, -1, -1, -1, 66, -1, -1, 69, 70, 71, -1, 73, -1, -1, 76, 77, -1, -1, 80, -1, -1, 83, 84, -1, -1, 87, 88, 89, -1, 91, -1, 93, 94, -1, -1, -1, 98, -1, 100, 101, -1, 103, -1, -1, -1, 107, -1, 109, -1, -1, 112, 113, 114, -1, 116, 117, -1, 119, -1, 121, -1, -1, 124, -1, -1, -1, 128, 129, 130, -1, -1, 133, -1, 135, -1, -1, 138, -1, -1, 141, 142, 143, 144, 145, 146, 147, 148, -1, -1, -1, 152, -1, -1, 155, 156, 157, 158, 159, -1, 161, 162, 163, -1, -1, -1, 167, -1, -1, 170, 171, -1, -1, -1, -1, -1, 177, 178, 179, -1, -1, -1, 183, 184, -1, 186, 187, -1, -1, -1, 191, 192, -1, -1, -1, 196, 197, 198, -1, 200, -1, -1, 203, -1, 205, 206, 207, -1, -1, -1, -1, 212, 213, -1, -1, 216, 217, -1, -1, -1, 221, 222, 223, 224, -1, -1, 227, -1, -1, 230, 231, -1, -1, 234, -1, -1, 237, -1, 239, 240, -1, -1, 243, 244, 245, -1, -1, 248, 249, -1, -1, -1, 253, -1, -1, 256, -1, 258, 259, -1, 261, 262, 263, -1, -1, -1, 267, 268, -1, 270, -1, -1, 273, -1, -1, 276, -1, -1, 279, -1, 281, 282, 283, -1, -1, -1, -1, 288, 289, 290, 291, -1, -1, 294, 295, -1, -1, 298, -1, 300, 301, -1, -1, 304, -1, -1, -1, 308, -1, 310, 311, -1, 313, 314, -1, 316, 317, 318, 319, -1, -1, -1, 323, -1, -1, 326, -1, -1, 329, -1, -1, 332, -1, 334, 335, 336, -1, -1, 339, 340, 341, 342, -1, -1, 345, -1, 347, -1, -1, -1, 351, -1, -1, -1, 355, 356, -1, -1, 359, 360, 361, 362, 363, 364, 365, -1, 367, -1, -1, 370, -1, 372, 373, 374, -1, 376, 377, 378, -1, 380, -1, -1, -1, -1, 385, -1, 387, 388, -1, -1, 391, -1, -1, 394, 395, -1, -1, 398, 399, -1, -1, -1, 403, -1, 405, 406, -1, -1, 409, 410, 411, 412, -1, -1, -1, -1, 417, -1, -1, 420, 421, 422, -1, -1, -1, -1, 427, 428, 429, -1, -1, 432, 433, -1, 435, -1, -1, -1, 439, -1, -1, 442, 443, 444, -1, 446, -1, -1, 449, -1, 451, 452, 453, -1, -1, -1, 457, -1, -1, 460, 461, -1, -1, 464, 465, 466, 467, 468, 469, -1, 471, -1, -1, 474, 475, -1, 477, -1, -1, 480, -1, -1, 483, -1, 485, -1, 487, -1, 489, 490, -1, -1, -1, 494, 495, 496, -1, -1, -1, 500, -1, -1, 503, -1, -1, -1, 507, -1, 509, -1, 511, -1, -1], "children_right": [354, 287, 4, -1, 18, 13, 12, 9, -1, 11, -1, -1, -1, 15, -1, 17, -1, -1, 140, 111, 32, 31, 24, -1, 28, 27, -1, -1, 30, -1, -1, -1, 68, 37, 36, -1, -1, 41, 40, -1, -1, 47, 44, -1, 46, -1, -1, 65, 60, 59, 52, -1, 56, 55, -1, -1, 58, -1, -1, -1, 64, 63, -1, -1, -1, 67, -1, -1, 82, 75, 72, -1, 74, -1, -1, 79, 78, -1, -1, 81, -1, -1, 86, 85, -1, -1, 106, 97, 90, -1, 92, -1, 96, 95, -1, -1, -1, 99, -1, 105, 102, -1, 104, -1, -1, -1, 108, -1, 110, -1, -1, 127, 126, 115, -1, 123, 118, -1, 120, -1, 122, -1, -1, 125, -1, -1, -1, 137, 132, 131, -1, -1, 134, -1, 136, -1, -1, 139, -1, -1, 278, 255, 220, 195, 154, 151, 150, 149, -1, -1, -1, 153, -1, -1, 176, 175, 174, 169, 160, -1, 166, 165, 164, -1, -1, -1, 168, -1, -1, 173, 172, -1, -1, -1, -1, -1, 182, 181, 180, -1, -1, -1, 190, 185, -1, 189, 188, -1, -1, -1, 194, 193, -1, -1, -1, 211, 202, 199, -1, 201, -1, -1, 204, -1, 210, 209, 208, -1, -1, -1, -1, 215, 214, -1, -1, 219, 218, -1, -1, -1, 236, 229, 226, 225, -1, -1, 228, -1, -1, 233, 232, -1, -1, 235, -1, -1, 238, -1, 242, 241, -1, -1, 252, 247, 246, -1, -1, 251, 250, -1, -1, -1, 254, -1, -1, 257, -1, 275, 260, -1, 266, 265, 264, -1, -1, -1, 272, 269, -1, 271, -1, -1, 274, -1, -1, 277, -1, -1, 280, -1, 286, 285, 284, -1, -1, -1, -1, 307, 306, 293, 292, -1, -1, 297, 296, -1, -1, 299, -1, 303, 302, -1, -1, 305, -1, -1, -1, 309, -1, 331, 312, -1, 328, 315, -1, 325, 322, 321, 320, -1, -1, -1, 324, -1, -1, 327, -1, -1, 330, -1, -1, 333, -1, 353, 338, 337, -1, -1, 350, 349, 344, 343, -1, -1, 346, -1, 348, -1, -1, -1, 352, -1, -1, -1, 358, 357, -1, -1, 506, 441, 426, 419, 402, 369, 366, -1, 368, -1, -1, 371, -1, 393, 384, 375, -1, 383, 382, 379, -1, 381, -1, -1, -1, -1, 386, -1, 390, 389, -1, -1, 392, -1, -1, 397, 396, -1, -1, 401, 400, -1, -1, -1, 404, -1, 408, 407, -1, -1, 416, 415, 414, 413, -1, -1, -1, -1, 418, -1, -1, 425, 424, 423, -1, -1, -1, -1, 438, 431, 430, -1, -1, 437, 434, -1, 436, -1, -1, -1, 440, -1, -1, 459, 448, 445, -1, 447, -1, -1, 450, -1, 456, 455, 454, -1, -1, -1, 458, -1, -1, 463, 462, -1, -1, 505, 502, 493, 482, 473, 470, -1, 472, -1, -1, 479, 476, -1, 478, -1, -1, 481, -1, -1, 484, -1, 486, -1, 488, -1, 492, 491, -1, -1, -1, 499, 498, 497, -1, -1, -1, 501, -1, -1, 504, -1, -1, -1, 508, -1, 510, -1, 512, -1, -1], "feature": [4, 2, 12, -2, 9, 11, 8, 7, -2, 5, -2, -2, -2, 2, -2, 1, -2, -2, 8, 9, 0, 9, 2, -2, 0, 0, -2, -2, 9, -2, -2, -2, 11, 0, 7, -2, -2, 1, 5, -2, -2, 9, 6, -2, 9, -2, -2, 5, 1, 2, 9, -2, 9, 7, -2, -2, 7, -2, -2, -2, 9, 9, -2, -2, -2, 9, -2, -2, 11, 0, 9, -2, 2, -2, -2, 9, 9, -2, -2, 11, -2, -2, 9, 3, -2, -2, 9, 2, 7, -2, 9, -2, 1, 2, -2, -2, -2, 7, -2, 0, 11, -2, 9, -2, -2, -2, 2, -2, 9, -2, -2, 9, 6, 7, -2, 3, 2, -2, 11, -2, 11, -2, -2, 0, -2, -2, -2, 9, 9, 3, -2, -2, 7, -2, 3, -2, -2, 5, -2, -2, 9, 9, 9, 9, 11, 1, 9, 7, -2, -2, -2, 2, -2, -2, 5, 8, 9, 1, 9, -2, 2, 7, 3, -2, -2, -2, 0, -2, -2, 7, 2, -2, -2, -2, -2, -2, 2, 9, 1, -2, -2, -2, 9, 0, -2, 3, 1, -2, -2, -2, 6, 0, -2, -2, -2, 6, 5, 1, -2, 9, -2, -2, 9, -2, 8, 1, 2, -2, -2, -2, -2, 2, 2, -2, -2, 5, 1, -2, -2, -2, 9, 2, 5, 11, -2, -2, 1, -2, -2, 11, 5, -2, -2, 1, -2, -2, 2, -2, 7, 9, -2, -2, 11, 9, 2, -2, -2, 5, 2, -2, -2, -2, 5, -2, -2, 2, -2, 8, 7, -2, 5, 1, 2, -2, -2, -2, 9, 11, -2, 9, -2, -2, 1, -2, -2, 9, -2, -2, 1, -2, 6, 5, 9, -2, -2, -2, -2, 11, 6, 5, 11, -2, -2, 9, 1, -2, -2, 9, -2, 9, 9, -2, -2, 2, -2, -2, -2, 9, -2, 9, 0, -2, 9, 8, -2, 2, 8, 0, 2, -2, -2, -2, 2, -2, -2, 9, -2, -2, 5, -2, -2, 7, -2, 9, 11, 2, -2, -2, 1, 9, 5, 1, -2, -2, 0, -2, 2, -2, -2, -2, 1, -2, -2, -2, 12, 9, -2, -2, 9, 9, 9, 1, 9, 7, 8, -2, 2, -2, -2, 8, -2, 8, 3, 9, -2, 1, 5, 2, -2, 1, -2, -2, -2, -2, 2, -2, 1, 0, -2, -2, 2, -2, -2, 8, 3, -2, -2, 1, 0, -2, -2, -2, 7, -2, 1, 5, -2, -2, 2, 9, 2, 1, -2, -2, -2, -2, 0, -2, -2, 8, 2, 5, -2, -2, -2, -2, 5, 9, 1, -2, -2, 2, 9, -2, 7, -2, -2, -2, 9, -2, -2, 1, 11, 5, -2, 6, -2, -2, 8, -2, 2, 8, 7, -2, -2, -2, 7, -2, -2, 8, 5, -2, -2, 1, 1, 2, 8, 11, 7, -2, 2, -2, -2, 5, 2, -2, 6, -2, -2, 2, -2, -2, 5, -2, 7, -2, 6, -2, 11, 8, -2, -2, -2, 8, 6, 2, -2, -2, -2, 2, -2, -2, 2, -2, -2, -2, 2, -2, 1, -2, 8, -2, -2], "threshold": [0.5, 3.5, 0.5, -2.0, 1.5, 5.0, 0.5, 0.5, -2.0, 0.5, -2.0, -2.0, -2.0, 1.5, -2.0, 3.5, -2.0, -2.0, 0.5, 30.0, 85.5, 22.5, 2.5, -2.0, 28.5, 23.5, -2.0, -2.0, 4.5, -2.0, -2.0, -2.0, 0.5, 249.0, 0.5, -2.0, -2.0, 1.5, 0.5, -2.0, -2.0, 11.5, 0.5, -2.0, 8.0, -2.0, -2.0, 0.5, 2.5, 2.5, 15.0, -2.0, 19.5, 0.5, -2.0, -2.0, 0.5, -2.0, -2.0, -2.0, 22.0, 19.0, -2.0, -2.0, -2.0, 15.0, -2.0, -2.0, 6.0, 480.0, 8.5, -2.0, 2.0, -2.0, -2.0, 13.5, 8.0, -2.0, -2.0, 3.0, -2.0, -2.0, 5.0, 0.5, -2.0, -2.0, 27.5, 2.5, 0.5, -2.0, 14.0, -2.0, 3.5, 1.5, -2.0, -2.0, -2.0, 0.5, -2.0, 392.5, 7.5, -2.0, 14.0, -2.0, -2.0, -2.0, 2.5, -2.0, 28.5, -2.0, -2.0, 31.5, 0.5, 0.5, -2.0, 0.5, 2.0, -2.0, 3.5, -2.0, 7.5, -2.0, -2.0, 301.0, -2.0, -2.0, -2.0, 33.5, 32.5, 0.5, -2.0, -2.0, 0.5, -2.0, 0.5, -2.0, -2.0, 0.5, -2.0, -2.0, 31.5, 19.5, 14.5, 10.0, 4.0, 3.5, 5.5, 0.5, -2.0, -2.0, -2.0, 2.5, -2.0, -2.0, 0.5, 1.5, 4.5, 3.5, 2.5, -2.0, 2.5, 0.5, 0.5, -2.0, -2.0, -2.0, 380.0, -2.0, -2.0, 0.5, 2.5, -2.0, -2.0, -2.0, -2.0, -2.0, 2.5, 4.5, 3.5, -2.0, -2.0, -2.0, 4.5, 3.5, -2.0, 0.5, 3.5, -2.0, -2.0, -2.0, 0.5, 285.0, -2.0, -2.0, -2.0, 0.5, 0.5, 2.5, -2.0, 13.0, -2.0, -2.0, 13.5, -2.0, 1.5, 3.5, 2.5, -2.0, -2.0, -2.0, -2.0, 2.5, 1.5, -2.0, -2.0, 0.5, 2.5, -2.0, -2.0, -2.0, 15.5, 2.5, 0.5, 4.0, -2.0, -2.0, 4.0, -2.0, -2.0, 4.0, 0.5, -2.0, -2.0, 3.5, -2.0, -2.0, 1.5, -2.0, 0.5, 17.5, -2.0, -2.0, 4.0, 17.0, 2.5, -2.0, -2.0, 0.5, 2.5, -2.0, -2.0, -2.0, 0.5, -2.0, -2.0, 1.5, -2.0, 1.5, 0.5, -2.0, 0.5, 3.5, 2.5, -2.0, -2.0, -2.0, 29.5, 4.0, -2.0, 24.0, -2.0, -2.0, 4.0, -2.0, -2.0, 25.5, -2.0, -2.0, 2.5, -2.0, 0.5, 0.5, 33.0, -2.0, -2.0, -2.0, -2.0, 3.5, 0.5, 0.5, 0.5, -2.0, -2.0, 14.5, 4.0, -2.0, -2.0, 19.5, -2.0, 30.5, 27.0, -2.0, -2.0, 4.5, -2.0, -2.0, -2.0, 1.5, -2.0, 18.0, 326.0, -2.0, 6.5, 0.5, -2.0, 5.5, 1.5, 480.0, 4.5, -2.0, -2.0, -2.0, 4.5, -2.0, -2.0, 4.5, -2.0, -2.0, 0.5, -2.0, -2.0, 0.5, -2.0, 33.5, 7.0, 6.0, -2.0, -2.0, 4.5, 32.0, 0.5, 3.5, -2.0, -2.0, 181.0, -2.0, 5.0, -2.0, -2.0, -2.0, 6.5, -2.0, -2.0, -2.0, 0.5, 31.5, -2.0, -2.0, 31.5, 29.0, 18.5, 5.5, 5.0, 0.5, 1.5, -2.0, 4.5, -2.0, -2.0, 0.5, -2.0, 1.5, 0.5, 1.5, -2.0, 4.5, 0.5, 2.0, -2.0, 3.0, -2.0, -2.0, -2.0, -2.0, 3.5, -2.0, 3.5, 464.0, -2.0, -2.0, 5.0, -2.0, -2.0, 2.5, 0.5, -2.0, -2.0, 4.5, 480.0, -2.0, -2.0, -2.0, 0.5, -2.0, 2.5, 0.5, -2.0, -2.0, 5.5, 14.5, 4.0, 3.5, -2.0, -2.0, -2.0, -2.0, 296.0, -2.0, -2.0, 1.5, 3.5, 0.5, -2.0, -2.0, -2.0, -2.0, 0.5, 21.5, 4.5, -2.0, -2.0, 4.0, 23.0, -2.0, 0.5, -2.0, -2.0, -2.0, 20.0, -2.0, -2.0, 3.5, 4.0, 0.5, -2.0, 0.5, -2.0, -2.0, 0.5, -2.0, 4.0, 1.5, 0.5, -2.0, -2.0, -2.0, 0.5, -2.0, -2.0, 0.5, 0.5, -2.0, -2.0, 5.5, 4.5, 3.5, 1.5, 4.0, 0.5, -2.0, 2.0, -2.0, -2.0, 0.5, 2.5, -2.0, 0.5, -2.0, -2.0, 2.5, -2.0, -2.0, 0.5, -2.0, 0.5, -2.0, 0.5, -2.0, 4.0, 2.5, -2.0, -2.0, -2.0, 1.5, 0.5, 4.5, -2.0, -2.0, -2.0, 4.5, -2.0, -2.0, 4.0, -2.0, -2.0, -2.0, 2.5, -2.0, 3.5, -2.0, 1.5, -2.0, -2.0], "value": [19.01224561264879, 18.692091886418222, 18.49690115121171, 13.815511557963774, 18.51525954177344, 17.311390748610222, 19.62140884774888, 19.2488178244052, 20.44882899256044, 18.848814101686784, 18.951309000896888, 18.643824303266577, 20.36659089443625, 15.331375235062797, 17.989897843244528, 14.267966191790105, 14.346139397261565, 13.955273369904273, 18.579930179422714, 18.242728348009663, 18.03663650489831, 17.29773943351751, 17.52769529020189, 18.17221939747438, 17.46324287947464, 17.64035689243908, 17.370858648025116, 17.909855136853043, 17.197571860027985, 16.677711496036597, 17.370858648025116, 16.454567959008102, 18.174563958222723, 17.611174696015787, 18.811488665663212, 18.36938746009113, 19.253589871235295, 17.53115376470596, 16.98615238347095, 17.073607134447293, 16.811242881518265, 17.59170947373207, 17.297496405683766, 17.72753358339242, 17.189987111256606, 17.370858648025116, 17.129696599000436, 17.658576080106688, 17.586314019032244, 17.534113111125844, 17.516501119359653, 17.57671069691365, 17.509811166298093, 17.520653424737862, 17.553180200057167, 17.50439003707821, 17.50439003707821, 17.50439003707821, 17.50439003707821, 17.622173069956816, 17.71159619800759, 17.801519865403552, 17.707330876483063, 17.989897843244528, 17.57671069691365, 17.904267087759806, 18.430631084706523, 17.772676088523127, 18.593830385911605, 19.55620386761509, 18.850242730088876, 19.11382792951231, 18.79752569020419, 18.826145858727198, 18.683045016112164, 20.403357232646535, 20.649711405573044, 20.29248292239242, 21.006939888753664, 20.2391211173622, 20.21244021484709, 20.29248292239242, 18.263014501576034, 17.516505324795983, 17.8163026766322, 17.216707972959764, 18.71092000764407, 18.932777778663755, 18.74712710097284, 18.064005814299346, 18.823029466158786, 18.8906843794481, 18.768905535527335, 18.683045050727547, 18.68304508534293, 18.683045016112164, 18.826145858727198, 19.242195574815277, 19.519293035953808, 19.10364684424601, 18.913714553893055, 18.5159909328476, 19.112576364415784, 19.06253463538792, 19.162618093443648, 19.673443715304877, 17.823488923565332, 18.184958423089522, 17.46201942404114, 17.553180200057167, 17.370858648025116, 18.948196580198537, 19.66067024876356, 19.941280633559863, 17.909855136853043, 20.31063072387019, 20.14523191908206, 19.781657299652068, 20.197171150429206, 20.125428838008972, 20.25097788474438, 20.36659089443625, 20.21244021484709, 20.751694203305203, 20.71825329612789, 20.818576017659826, 16.012735246411598, 18.116977300206024, 18.486912479316523, 17.023545359839712, 17.129696599000436, 16.811242881518265, 19.218596039054926, 18.8906843794481, 19.382551868858343, 19.33697147982652, 19.519293035953808, 17.007171762874528, 16.588099342704055, 17.216707972959764, 18.88527042046604, 18.952987105764084, 18.761115512669473, 18.901973886969003, 18.698084385796005, 18.01498230229491, 18.29040418389201, 18.322646541564726, 18.33729914588288, 18.31532023940565, 18.258161826219297, 17.188716657503605, 17.426428497635523, 16.951004817371683, 18.841895350743613, 18.69185585882961, 18.619785541588694, 18.70134720436659, 18.825518943339254, 18.420680753952364, 18.96046500646822, 18.853396618952736, 18.920877756173763, 19.11382792951231, 18.7922443072814, 18.5159909328476, 19.174601781499184, 19.29614948547293, 19.11382792951231, 18.403335030832185, 18.328231096155243, 18.5159909328476, 18.234351177809064, 18.5159909328476, 17.233237274364523, 18.951309000896888, 19.071955905011755, 19.299905310909608, 19.185878101152866, 19.20913810886209, 19.162618093443648, 19.413932520666354, 18.98906521195799, 19.085639671631046, 19.20913810886209, 19.0679970377409, 19.10830556757651, 19.11509968932665, 19.09471732407624, 18.826145858727198, 18.731533319496496, 18.63657196028202, 18.757152987716434, 18.5159909328476, 18.92145603792546, 19.292762097550547, 19.758230233163758, 19.107594613039403, 19.519293035953808, 18.97036180540127, 19.00846741441004, 18.951309000896888, 20.191987313246656, 21.453226991111002, 19.939739377673796, 19.724849091054942, 19.642723074537628, 19.583831556883048, 19.701614592192207, 19.806975107572256, 20.799300524149192, 18.96028485782682, 18.45494212070576, 19.583831556883048, 17.777608458999385, 19.634075173988244, 19.659196982540838, 19.673443715304877, 19.654448071619495, 19.583831556883048, 18.432445972637247, 17.67918041253516, 17.474887718499033, 17.63552087649614, 17.726732942740984, 17.453096744006448, 17.39457113950048, 17.34905031340971, 17.622175269954347, 17.985619453589354, 17.777466370820875, 17.6867115897055, 17.822843761378564, 18.19377253635783, 18.132998684833918, 18.31532023940565, 19.185711532739326, 17.6867115897055, 19.416326908590683, 19.69960772628965, 19.717050400279497, 19.673443715304877, 19.23927639752883, 18.96232838726092, 19.5862670220046, 19.673443715304877, 19.499090328704316, 18.546369297431806, 18.66189382644488, 18.72078534381011, 18.603002309079653, 18.31532023940565, 19.700856414642015, 19.755681813316283, 19.673443715304877, 19.866661358595554, 18.683045016112164, 19.99125255254117, 19.874358195261067, 20.125428838008972, 19.79066798101177, 19.631911998459017, 19.961274563523165, 20.536936259959738, 19.673443715304877, 18.643824303266577, 19.870045972288136, 19.69747375221584, 19.583831556883048, 19.754294849882232, 19.806975107572256, 19.701614592192207, 19.97358930433152, 20.125428838008972, 19.935629420912154, 20.61468912470173, 20.500122286882203, 20.671972543611492, 17.51965060028883, 17.72753358339242, 17.415709108737037, 17.346887788330445, 17.411977696015782, 17.370858648025116, 17.453096744006448, 17.216707972959764, 17.622173069956816, 19.46084308969311, 20.007209084170128, 19.78290471185991, 20.273397722851364, 20.435583765827964, 20.030118658386467, 19.537658206364185, 20.10862053267164, 20.29248292239242, 19.92475814295086, 19.39491762478732, 17.72753358339242, 19.63311534498659, 19.9916483746369, 20.125428838008972, 19.92475814295086, 19.364215572748858, 19.806975107572256, 18.92145603792546, 21.12873094572124, 19.25159653861681, 15.894952224644102, 19.40078073034893, 18.973765197068385, 19.92475814295086, 18.783566607891885, 18.870115625861036, 18.5159909328476, 18.940940564463723, 18.992763213861593, 19.06185356880277, 19.035866388448003, 19.035866388448003, 19.035866388448003, 19.11382792951231, 18.951309000896888, 18.951309000896888, 18.951309000896888, 18.733649966872242, 18.5159909328476, 18.951309000896888, 18.43737053601528, 18.819456870621142, 18.24632736871235, 19.685457752535953, 20.9055873945737, 19.47326129305113, 19.63114837391595, 19.09850089186781, 18.951309000896888, 19.17209683735327, 19.72514498839503, 19.851758660181837, 19.939323888084935, 20.113081747471725, 20.088387566397234, 20.125428838008972, 19.86485623406202, 19.946737049621326, 19.755681813316283, 19.755681813316283, 19.755681813316283, 19.413932520666354, 19.421272176106697, 19.432281659267208, 19.413932520666354, 18.420680753952364, 19.751593426461863, 15.388343729348328, 15.76142084987672, 15.201805169084134, 19.84784158154525, 19.931296111476136, 19.604529867276476, 19.76134867803759, 19.633047544037318, 19.525398078441068, 20.048057797848124, 19.583831556883048, 20.125428838008972, 20.125428838008972, 20.125428838008972, 19.389893706742946, 20.29248292239242, 19.317686569490988, 19.444026589023117, 19.21270186871659, 19.729013566305248, 19.040597969520366, 18.93195125204783, 18.99417781103175, 18.951309000896888, 19.00846741441004, 19.00846741441004, 19.00846741441004, 18.683045016112164, 19.583831556883048, 19.62908636526834, 19.11382792951231, 19.849911409163774, 19.695671655705024, 19.729013566305248, 19.673443715304877, 20.23551079281065, 20.178538663228878, 20.29248292239242, 18.992812233551223, 18.6988963325358, 18.746843344263876, 18.603002309079653, 19.213249159312785, 19.111234533765778, 19.162618093443648, 19.00846741441004, 19.519293035953808, 19.89448196048536, 19.06253463538792, 20.0331398480016, 19.566948125704457, 19.6146032154551, 19.519293035953808, 20.12637819246103, 20.280538154449467, 20.210117325082827, 20.252461568619754, 20.21244021484709, 20.29248292239242, 20.125428838008972, 20.7030631306493, 19.766671614488015, 19.687628350256592, 19.92475814295086, 20.641127882610864, 20.278431601324222, 20.52674454426198, 20.030118658386467, 21.02337043013749, 20.030118658386467, 21.12472292432638, 18.885776984621362, 19.667881290364324, 21.299964411065567, 21.369845382213857, 21.230083439917273, 19.12385358346391, 19.228023838340754, 19.11382792951231, 19.399317701583428, 19.29614948547293, 19.502485917693924, 18.603002309079653, 17.321568373135456, 14.914123179965662, 19.729013566305248, 20.29618508416577, 20.030786652799154, 19.379946338346567, 19.275096076363752, 19.484796600329382, 19.450300164704952, 19.519293035953808, 20.175417833788615, 19.673443715304877, 20.36848480243621, 20.480780104875354, 20.658455738308543, 20.671972543611492, 20.617905322399697, 20.125428838008972, 20.272231686059804, 20.29248292239242, 20.245230037616313, 20.449836807588547, 21.677541815433347, 21.453226991111002, 21.789699227594518, 20.34460494977328, 20.32334143328055, 20.36035026292823, 20.29408438722441, 20.111875956349365, 20.41099143100719, 19.92475814295086, 20.89722471906352, 20.442228308537803, 21.12472292432638, 19.932406671554666, 20.24177644963538, 20.72326583794641, 20.04918069431097, 20.125428838008972, 20.030118658386467, 19.21054385603301, 19.729013566305248, 18.951309000896888, 20.6585012489745, 20.560746908625106, 20.717153853184133, 20.942401367666296, 20.660841974563592, 20.799300524149192, 20.614689124701727, 20.671972543611492, 20.671972543611492, 20.671972543611492, 20.500122286882203, 20.559147890039714, 20.80852380775026, 20.979297550185578, 20.29248292239242, 21.208235759449966, 20.125428838008972, 20.14352136052214, 20.671972543611492, 19.879295768977464, 19.731200158917744, 20.125428838008972, 19.33697147982652, 21.067564510525806, 18.670205436964928, 19.402759220109843, 18.578636214071814, 18.5159909328476, 18.61622338280634, 18.683045016112164, 18.5159909328476]}, {"children_left": [1, 2, 3, 4, -1, 6, 7, 8, -1, 10, 11, -1, -1, -1, 15, 16, 17, -1, -1, 20, -1, -1, 23, 24, -1, 26, -1, 28, 29, -1, -1, -1, -1, 34, 35, 36, 37, 38, -1, -1, 41, -1, -1, 44, 45, 46, -1, 48, -1, 50, -1, 52, 53, -1, 55, -1, -1, -1, -1, 60, -1, -1, 63, 64, 65, -1, -1, 68, 69, -1, 71, 72, -1, 74, -1, -1, 77, -1, -1, 80, -1, 82, -1, -1, 85, -1, 87, -1, -1, 90, 91, 92, 93, -1, -1, 96, 97, -1, -1, 100, -1, -1, 103, 104, 105, -1, -1, -1, -1, 110, 111, 112, 113, -1, -1, -1, 117, -1, -1, 120, -1, 122, -1, -1, 125, 126, -1, -1, 129, 130, -1, 132, -1, 134, -1, -1, -1, 138, 139, 140, 141, 142, 143, -1, -1, 146, -1, 148, 149, 150, 151, -1, -1, 154, 155, 156, 157, -1, 159, -1, -1, 162, -1, -1, -1, -1, -1, 168, -1, -1, 171, -1, -1, 174, 175, 176, 177, 178, 179, 180, -1, -1, -1, 184, 185, -1, 187, 188, 189, -1, -1, 192, 193, -1, -1, 196, 197, -1, 199, -1, -1, -1, 203, 204, -1, -1, 207, -1, -1, 210, 211, -1, -1, 214, -1, -1, 217, -1, 219, -1, 221, -1, -1, 224, 225, -1, -1, 228, -1, 230, -1, -1, 233, 234, 235, -1, 237, -1, 239, -1, -1, -1, 243, -1, -1, 246, 247, 248, -1, -1, 251, -1, -1, 254, 255, 256, 257, -1, -1, -1, -1, 262, -1, -1, 265, 266, 267, -1, 269, -1, -1, 272, 273, 274, -1, 276, 277, 278, 279, -1, -1, -1, 283, -1, -1, 286, -1, 288, -1, -1, 291, 292, -1, 294, -1, 296, -1, 298, -1, -1, 301, -1, 303, -1, -1, 306, 307, 308, -1, 310, 311, -1, -1, -1, -1, 316, -1, -1, -1, 320, 321, 322, 323, -1, -1, 326, -1, -1, 329, -1, -1, 332, -1, -1, 335, -1, 337, 338, 339, 340, 341, 342, 343, 344, 345, 346, -1, 348, 349, -1, -1, 352, -1, 354, -1, -1, 357, -1, -1, 360, -1, -1, -1, 364, -1, -1, 367, 368, -1, -1, 371, 372, 373, 374, -1, -1, 377, 378, -1, -1, -1, 382, 383, -1, -1, -1, -1, 388, 389, -1, -1, -1, 393, -1, 395, 396, -1, -1, -1, 400, -1, -1, 403, 404, 405, 406, 407, -1, 409, -1, -1, -1, 413, 414, -1, -1, 417, -1, -1, 420, 421, 422, -1, 424, -1, 426, 427, -1, 429, -1, -1, 432, -1, -1, 435, -1, -1, 438, -1, 440, 441, 442, -1, -1, -1, 446, -1, 448, 449, 450, 451, 452, 453, -1, 455, -1, -1, -1, -1, 460, 461, 462, 463, 464, -1, -1, -1, -1, 469, 470, -1, -1, 473, -1, -1, 476, 477, -1, -1, 480, -1, -1, 483, -1, -1, -1, 487, -1, 489, 490, -1, -1, -1], "children_right": [334, 137, 124, 5, -1, 33, 14, 9, -1, 13, 12, -1, -1, -1, 22, 19, 18, -1, -1, 21, -1, -1, 32, 25, -1, 27, -1, 31, 30, -1, -1, -1, -1, 89, 62, 43, 40, 39, -1, -1, 42, -1, -1, 59, 58, 47, -1, 49, -1, 51, -1, 57, 54, -1, 56, -1, -1, -1, -1, 61, -1, -1, 84, 67, 66, -1, -1, 79, 70, -1, 76, 73, -1, 75, -1, -1, 78, -1, -1, 81, -1, 83, -1, -1, 86, -1, 88, -1, -1, 109, 102, 95, 94, -1, -1, 99, 98, -1, -1, 101, -1, -1, 108, 107, 106, -1, -1, -1, -1, 119, 116, 115, 114, -1, -1, -1, 118, -1, -1, 121, -1, 123, -1, -1, 128, 127, -1, -1, 136, 131, -1, 133, -1, 135, -1, -1, -1, 319, 264, 173, 170, 145, 144, -1, -1, 147, -1, 167, 166, 153, 152, -1, -1, 165, 164, 161, 158, -1, 160, -1, -1, 163, -1, -1, -1, -1, -1, 169, -1, -1, 172, -1, -1, 245, 232, 223, 216, 183, 182, 181, -1, -1, -1, 209, 186, -1, 202, 191, 190, -1, -1, 195, 194, -1, -1, 201, 198, -1, 200, -1, -1, -1, 206, 205, -1, -1, 208, -1, -1, 213, 212, -1, -1, 215, -1, -1, 218, -1, 220, -1, 222, -1, -1, 227, 226, -1, -1, 229, -1, 231, -1, -1, 242, 241, 236, -1, 238, -1, 240, -1, -1, -1, 244, -1, -1, 253, 250, 249, -1, -1, 252, -1, -1, 261, 260, 259, 258, -1, -1, -1, -1, 263, -1, -1, 318, 271, 268, -1, 270, -1, -1, 305, 290, 275, -1, 285, 282, 281, 280, -1, -1, -1, 284, -1, -1, 287, -1, 289, -1, -1, 300, 293, -1, 295, -1, 297, -1, 299, -1, -1, 302, -1, 304, -1, -1, 315, 314, 309, -1, 313, 312, -1, -1, -1, -1, 317, -1, -1, -1, 331, 328, 325, 324, -1, -1, 327, -1, -1, 330, -1, -1, 333, -1, -1, 336, -1, 402, 399, 392, 387, 366, 363, 362, 359, 356, 347, -1, 351, 350, -1, -1, 353, -1, 355, -1, -1, 358, -1, -1, 361, -1, -1, -1, 365, -1, -1, 370, 369, -1, -1, 386, 381, 376, 375, -1, -1, 380, 379, -1, -1, -1, 385, 384, -1, -1, -1, -1, 391, 390, -1, -1, -1, 394, -1, 398, 397, -1, -1, -1, 401, -1, -1, 486, 419, 412, 411, 408, -1, 410, -1, -1, -1, 416, 415, -1, -1, 418, -1, -1, 437, 434, 423, -1, 425, -1, 431, 428, -1, 430, -1, -1, 433, -1, -1, 436, -1, -1, 439, -1, 445, 444, 443, -1, -1, -1, 447, -1, 485, 482, 459, 458, 457, 454, -1, 456, -1, -1, -1, -1, 475, 468, 467, 466, 465, -1, -1, -1, -1, 472, 471, -1, -1, 474, -1, -1, 479, 478, -1, -1, 481, -1, -1, 484, -1, -1, -1, 488, -1, 492, 491, -1, -1, -1], "feature": [4, 2, 3, 12, -2, 7, 11, 9, -2, 8, 2, -2, -2, -2, 9, 1, 2, -2, -2, 1, -2, -2, 1, 9, -2, 8, -2, 9, 9, -2, -2, -2, -2, 11, 9, 2, 6, 5, -2, -2, 9, -2, -2, 6, 1, 8, -2, 9, -2, 9, -2, 1, 1, -2, 9, -2, -2, -2, -2, 9, -2, -2, 9, 9, 6, -2, -2, 8, 1, -2, 2, 9, -2, 6, -2, -2, 9, -2, -2, 1, -2, 9, -2, -2, 9, -2, 2, -2, -2, 9, 5, 9, 8, -2, -2, 8, 9, -2, -2, 9, -2, -2, 6, 9, 1, -2, -2, -2, -2, 8, 9, 5, 9, -2, -2, -2, 9, -2, -2, 5, -2, 9, -2, -2, 0, 2, -2, -2, 11, 7, -2, 9, -2, 0, -2, -2, -2, 0, 9, 8, 2, 0, 11, -2, -2, 1, -2, 9, 9, 7, 2, -2, -2, 3, 1, 9, 9, -2, 11, -2, -2, 11, -2, -2, -2, -2, -2, 1, -2, -2, 10, -2, -2, 9, 9, 3, 2, 9, 1, 9, -2, -2, -2, 2, 1, -2, 5, 1, 7, -2, -2, 9, 7, -2, -2, 9, 8, -2, 7, -2, -2, -2, 9, 1, -2, -2, 6, -2, -2, 9, 2, -2, -2, 8, -2, -2, 9, -2, 8, -2, 7, -2, -2, 2, 0, -2, -2, 0, -2, 2, -2, -2, 1, 2, 1, -2, 6, -2, 5, -2, -2, -2, 0, -2, -2, 9, 11, 1, -2, -2, 3, -2, -2, 9, 9, 2, 9, -2, -2, -2, -2, 0, -2, -2, 2, 7, 11, -2, 2, -2, -2, 9, 2, 1, -2, 11, 11, 8, 8, -2, -2, -2, 5, -2, -2, 8, -2, 1, -2, -2, 1, 1, -2, 5, -2, 8, -2, 0, -2, -2, 5, -2, 8, -2, -2, 1, 9, 1, -2, 9, 11, -2, -2, -2, -2, 8, -2, -2, -2, 5, 0, 11, 9, -2, -2, 11, -2, -2, 0, -2, -2, 2, -2, -2, 12, -2, 9, 9, 9, 0, 5, 2, 9, 8, 3, 7, -2, 2, 11, -2, -2, 1, -2, 2, -2, -2, 2, -2, -2, 3, -2, -2, -2, 8, -2, -2, 7, 1, -2, -2, 9, 1, 1, 1, -2, -2, 6, 1, -2, -2, -2, 3, 8, -2, -2, -2, -2, 0, 2, -2, -2, -2, 1, -2, 1, 5, -2, -2, -2, 5, -2, -2, 9, 2, 11, 1, 5, -2, 2, -2, -2, -2, 9, 5, -2, -2, 7, -2, -2, 1, 6, 8, -2, 11, -2, 2, 7, -2, 8, -2, -2, 7, -2, -2, 0, -2, -2, 9, -2, 9, 9, 1, -2, -2, -2, 8, -2, 1, 2, 5, 8, 1, 7, -2, 2, -2, -2, -2, -2, 2, 8, 6, 1, 11, -2, -2, -2, -2, 8, 6, -2, -2, 11, -2, -2, 8, 6, -2, -2, 1, -2, -2, 3, -2, -2, -2, 5, -2, 8, 1, -2, -2, -2], "threshold": [0.5, 2.5, 0.5, 0.5, -2.0, 0.5, 5.0, 1.5, -2.0, 0.5, 1.5, -2.0, -2.0, -2.0, 2.0, 2.5, 1.5, -2.0, -2.0, 3.5, -2.0, -2.0, 3.5, 17.5, -2.0, 0.5, -2.0, 33.0, 30.5, -2.0, -2.0, -2.0, -2.0, 0.5, 14.5, 1.5, 0.5, 0.5, -2.0, -2.0, 11.5, -2.0, -2.0, 0.5, 4.5, 0.5, -2.0, 4.0, -2.0, 10.0, -2.0, 3.5, 2.5, -2.0, 13.0, -2.0, -2.0, -2.0, -2.0, 10.5, -2.0, -2.0, 31.5, 15.5, 0.5, -2.0, -2.0, 0.5, 1.5, -2.0, 1.5, 17.0, -2.0, 0.5, -2.0, -2.0, 20.0, -2.0, -2.0, 2.5, -2.0, 25.0, -2.0, -2.0, 33.0, -2.0, 1.5, -2.0, -2.0, 17.5, 0.5, 4.5, 0.5, -2.0, -2.0, 0.5, 6.5, -2.0, -2.0, 10.5, -2.0, -2.0, 0.5, 4.5, 3.5, -2.0, -2.0, -2.0, -2.0, 0.5, 31.5, 0.5, 24.0, -2.0, -2.0, -2.0, 33.5, -2.0, -2.0, 0.5, -2.0, 26.0, -2.0, -2.0, 216.0, 1.5, -2.0, -2.0, 6.5, 0.5, -2.0, 22.0, -2.0, 245.0, -2.0, -2.0, -2.0, 418.0, 30.0, 0.5, 5.0, 23.5, 6.5, -2.0, -2.0, 1.5, -2.0, 26.0, 19.5, 0.5, 3.5, -2.0, -2.0, 0.5, 3.5, 11.5, 3.0, -2.0, 7.5, -2.0, -2.0, 4.0, -2.0, -2.0, -2.0, -2.0, -2.0, 4.0, -2.0, -2.0, 1.5, -2.0, -2.0, 14.5, 12.5, 0.5, 5.5, 2.5, 4.0, 1.0, -2.0, -2.0, -2.0, 3.5, 2.5, -2.0, 0.5, 3.5, 0.5, -2.0, -2.0, 4.5, 0.5, -2.0, -2.0, 10.5, 1.5, -2.0, 0.5, -2.0, -2.0, -2.0, 4.5, 3.5, -2.0, -2.0, 0.5, -2.0, -2.0, 4.5, 4.5, -2.0, -2.0, 1.5, -2.0, -2.0, 1.5, -2.0, 1.5, -2.0, 0.5, -2.0, -2.0, 4.5, 3.5, -2.0, -2.0, 262.0, -2.0, 6.5, -2.0, -2.0, 3.5, 3.5, 2.5, -2.0, 0.5, -2.0, 0.5, -2.0, -2.0, -2.0, 197.5, -2.0, -2.0, 15.5, 4.0, 3.5, -2.0, -2.0, 0.5, -2.0, -2.0, 20.5, 19.5, 3.5, 17.0, -2.0, -2.0, -2.0, -2.0, 280.0, -2.0, -2.0, 6.5, 0.5, 7.5, -2.0, 3.5, -2.0, -2.0, 32.0, 3.5, 2.5, -2.0, 7.5, 1.0, 1.5, 0.5, -2.0, -2.0, -2.0, 0.5, -2.0, -2.0, 0.5, -2.0, 4.0, -2.0, -2.0, 4.5, 3.5, -2.0, 0.5, -2.0, 0.5, -2.0, 181.0, -2.0, -2.0, 0.5, -2.0, 0.5, -2.0, -2.0, 3.5, 34.5, 2.5, -2.0, 33.5, 5.0, -2.0, -2.0, -2.0, -2.0, 0.5, -2.0, -2.0, -2.0, 0.5, 920.0, 3.5, 14.0, -2.0, -2.0, 7.0, -2.0, -2.0, 1595.0, -2.0, -2.0, 4.0, -2.0, -2.0, 0.5, -2.0, 20.0, 17.0, 6.5, 510.0, 0.5, 5.5, 4.5, 1.5, 0.5, 0.5, -2.0, 2.5, 4.0, -2.0, -2.0, 2.5, -2.0, 4.0, -2.0, -2.0, 3.5, -2.0, -2.0, 0.5, -2.0, -2.0, -2.0, 2.0, -2.0, -2.0, 0.5, 4.5, -2.0, -2.0, 4.5, 5.5, 3.5, 2.5, -2.0, -2.0, 0.5, 4.5, -2.0, -2.0, -2.0, 0.5, 0.5, -2.0, -2.0, -2.0, -2.0, 570.0, 5.0, -2.0, -2.0, -2.0, 2.5, -2.0, 4.0, 0.5, -2.0, -2.0, -2.0, 0.5, -2.0, -2.0, 31.5, 2.5, 4.0, 3.5, 0.5, -2.0, 1.5, -2.0, -2.0, -2.0, 27.5, 0.5, -2.0, -2.0, 0.5, -2.0, -2.0, 3.5, 0.5, 0.5, -2.0, 4.0, -2.0, 4.0, 0.5, -2.0, 1.5, -2.0, -2.0, 0.5, -2.0, -2.0, 430.0, -2.0, -2.0, 22.5, -2.0, 29.0, 25.5, 5.0, -2.0, -2.0, -2.0, 0.5, -2.0, 5.5, 5.5, 0.5, 1.5, 4.5, 0.5, -2.0, 4.0, -2.0, -2.0, -2.0, -2.0, 4.0, 1.5, 0.5, 4.5, 4.0, -2.0, -2.0, -2.0, -2.0, 2.5, 0.5, -2.0, -2.0, 4.0, -2.0, -2.0, 1.5, 0.5, -2.0, -2.0, 4.5, -2.0, -2.0, 0.5, -2.0, -2.0, -2.0, 0.5, -2.0, 1.5, 3.5, -2.0, -2.0, -2.0], "value": [19.1142615694786, 18.788516337706326, 18.282140077827815, 18.107421428142484, 13.815511557963774, 18.149498975889326, 17.53238008642238, 18.858505473627826, 20.44882899256044, 17.79828979433942, 17.52878511856769, 17.553180200057167, 17.50439003707821, 18.33729914588288, 17.090338290687225, 15.86409900475682, 18.336471429678348, 17.989897843244528, 18.683045016112164, 14.215850721475801, 14.346139397261565, 13.955273369904273, 17.703457933652434, 17.50032468385364, 14.731801689838349, 17.895827968712968, 18.8906843794481, 17.149685660661618, 17.392818264546104, 17.281246492014, 17.50439003707821, 16.906553056777135, 18.5159909328476, 18.300015778198347, 18.08289153862526, 18.447869175586817, 17.64459608142284, 18.174444238155925, 17.57671069691365, 18.47331100877706, 17.326687187382987, 17.129696599000436, 17.622173069956816, 18.769178413252412, 19.12483387739791, 19.294674415374153, 18.643824303266577, 19.57361017770597, 20.36659089443625, 19.441446724917586, 18.258161826219297, 19.678103704657246, 19.592189436047246, 19.519293035953808, 19.628637636093963, 19.673443715304877, 19.583831556883048, 19.806975107572256, 17.426428497635523, 18.33448840151902, 17.370858648025116, 18.45494212070576, 17.68983869882052, 17.85751950308483, 17.373919862522122, 17.375756591220327, 17.370858648025116, 18.20922833258498, 17.723481503352698, 16.811242881518265, 17.875521273658435, 18.043006726989688, 17.822843761378564, 18.116394382193395, 17.989897843244528, 18.36938746009113, 17.54055036699593, 17.50439003707821, 17.57671069691365, 19.059285283741477, 19.673443715304877, 18.854565806553676, 18.72078534381011, 18.92145603792546, 17.234705087245963, 17.370858648025116, 17.180243662934306, 17.034386422832473, 17.216707972959764, 18.71875538308928, 18.341576145884382, 17.91775063555346, 18.715269931735836, 19.11382792951231, 18.5159909328476, 17.5759566514753, 18.32282535943127, 17.822843761378564, 18.82280695748398, 17.277209168292906, 17.233237274364523, 17.453096744006448, 19.189227166546214, 19.248706707958544, 19.19363143705594, 19.20913810886209, 19.162618093443648, 19.413932520666354, 18.951309000896888, 19.15396219524878, 18.707219899714016, 18.591046176878795, 18.718820244073616, 18.683045039189086, 18.826145858727198, 18.420680753952364, 19.11382792963731, 19.33697147982652, 18.8906843794481, 20.159132360202005, 20.536936259959738, 19.78132846044427, 19.806975107572256, 19.755681813316283, 19.781808487626982, 18.662664243413992, 18.826145858727198, 18.17221939747438, 20.341380609733477, 20.562685795798057, 20.29248292239242, 20.765337950852285, 21.006939888753664, 20.684803971551826, 20.617905322399697, 20.71825329612789, 18.7922443072814, 19.087148490967994, 19.22439495378253, 18.94809181233739, 18.348525803745076, 18.11182272157585, 17.141785975770862, 16.454567959008102, 17.370858648025116, 18.28819303899494, 17.073607134447293, 18.409651629449705, 18.514944096717326, 18.406023696851513, 17.389381931228584, 17.370858648025116, 17.426428497635523, 18.6238755037707, 18.74287889825698, 18.804594633162218, 19.050686623581022, 18.951309000896888, 19.199753057607218, 19.33697147982652, 19.06253463538792, 18.599517974479884, 18.683045016112164, 18.5159909328476, 18.064005814299346, 17.909855136853043, 20.36659089443625, 17.46201942404114, 17.370858648025116, 17.553180200057167, 19.887095837845045, 19.17209683735327, 20.125428838008972, 19.150192714110084, 19.25868876532195, 19.049745810007607, 18.984817849421002, 19.09362923950616, 19.851168191098733, 20.009493523856325, 19.96824325479604, 20.030118658386467, 19.376192192825954, 19.01173313663129, 18.9515121296647, 18.31532023940565, 18.973449781052942, 18.911128214528585, 19.08038793217576, 19.00846741441004, 19.29614948547293, 18.85470830864619, 18.37517105532833, 18.234351177809064, 18.5159909328476, 18.950615759309763, 18.93615284553469, 18.8906843794481, 18.951309000896888, 18.951309000896888, 18.951309000896888, 19.00846741441004, 19.050153247544458, 19.181272141691068, 19.132621373972896, 19.210462602321968, 18.840363016909887, 18.5159909328476, 18.92145603792546, 19.269823166488095, 19.637350307096547, 19.92475814295086, 19.06253463538792, 18.99417781103175, 19.00846741441004, 18.951309000896888, 18.427159475234586, 15.894952224644102, 18.788903368176083, 18.5159909328476, 18.993587694672446, 18.951309000896888, 19.035866388448003, 19.5042415341138, 19.017933905917275, 19.11382792951231, 18.826145858727198, 19.8689722552612, 19.701614592192207, 19.92475814295086, 19.92475814295086, 19.92475814295086, 19.989989108922167, 19.82444127087535, 19.63722461026852, 19.673443715304877, 19.62170213668151, 19.701614592192207, 19.608383394096396, 19.620659312703072, 19.583831556883048, 20.29248292239242, 21.14882397524989, 20.844420959388774, 21.453226991111002, 18.690680026624516, 17.91250934855548, 17.80015506609972, 17.6867115897055, 17.822843761378564, 18.137217913467, 18.31532023940565, 18.048166750497675, 19.566122039452186, 20.112272870751482, 19.853706593331, 19.736366106797888, 19.717050400279497, 19.755681813316283, 20.088387566397234, 20.500122286882203, 18.655870653953347, 19.701614592192207, 18.132998684833918, 19.76341255758532, 19.70433454877557, 18.935540532489934, 17.909855136853043, 19.44838323030838, 20.125428838008972, 18.77133762260779, 19.79304155065469, 19.95675409294367, 20.180325065306683, 19.48539148439307, 20.29005142018778, 20.424050399989202, 20.23453590427229, 20.109554007318227, 20.125428838008972, 20.088387566397234, 20.671972543611492, 20.850458015352253, 20.982662734576614, 20.71825329612789, 19.999720297284703, 20.21244021484709, 19.893360338503513, 19.755681813316283, 19.939253180232587, 19.628850000144578, 19.856113357121885, 18.92145603792546, 19.959964170365932, 20.435583765827964, 19.90051172093318, 19.755681813316283, 19.948788356805476, 19.946737049621326, 19.94919861824231, 19.174323286189978, 17.822843761378564, 19.51219316739283, 19.413932520666354, 19.806975107572256, 19.38921727967521, 19.832013541271355, 19.59111706603941, 19.33697147982652, 19.675832261443706, 19.610260838379435, 19.673443715304877, 19.589199879404287, 19.806975107572256, 20.31380649173524, 17.61803223329063, 17.216707972959764, 18.420680753952364, 20.9055873945737, 17.440190937193712, 18.404793146255216, 19.332004958932682, 20.252461568619754, 20.29248292239242, 20.21244021484709, 18.871776654089146, 18.951309000896888, 18.7922443072814, 17.013975427239014, 17.216707972959764, 16.811242881518265, 15.510986519070698, 16.012735246411598, 15.176487367510099, 19.78746838180801, 16.300417291085605, 19.810871409262536, 19.495980450826796, 19.592514494276642, 19.500112086336074, 19.411894573969562, 19.191902121281252, 19.077357789671673, 19.239866255050636, 19.375108735679344, 19.19815632036639, 19.71540791428649, 19.12426323552066, 18.920996690172494, 18.951309000896888, 18.8906843794481, 19.205569853659927, 19.00846741441004, 19.2548454634724, 19.33697147982652, 19.00846741441004, 19.729013566305248, 19.729013566305248, 19.729013566305248, 18.6988963325358, 18.746843344263876, 18.603002309079653, 17.85854429932945, 19.840986667068865, 19.673443715304877, 19.92475814295086, 19.60319235891591, 20.125428838008972, 20.125428838008972, 20.125428838008972, 19.524856887051946, 19.45812667027895, 19.383021530280786, 19.656422561594148, 19.729013566305248, 19.583831556883048, 19.273661117755438, 19.028029199557068, 19.162618093443648, 18.826145858727198, 19.519293035953808, 19.72099466027253, 19.891613510742676, 19.6146032154551, 20.030118658386467, 19.20913810886209, 20.125428838008972, 20.132337591629394, 20.224116366894293, 20.178538663228878, 20.29248292239242, 19.673443715304877, 20.045286293185466, 19.6146032154551, 20.229864755069908, 20.150998359140008, 20.21244021484709, 20.08955650343293, 20.7030631306493, 18.07210330994147, 21.230083439917273, 14.914123179965662, 20.04154734393055, 20.13159270058347, 19.287650188478885, 19.60941846436985, 19.442856495536255, 19.275096076363752, 19.484796600329382, 19.519293035953808, 19.450300164704952, 20.442228308537803, 19.09458922294431, 18.941218687041243, 19.11382792951231, 18.826145858727198, 19.24795975884738, 19.275096076363752, 19.22986888050313, 20.33933239587076, 20.05990306891889, 20.191300699261696, 19.673443715304877, 20.363919693913967, 19.729013566305248, 20.49090091943571, 20.623666942278106, 20.671972543611492, 20.60434470174475, 20.617905322399697, 20.58400377076233, 20.181113532803455, 20.29248292239242, 20.125428838008972, 19.709509388004744, 19.441649063198962, 20.245230037616313, 20.48229623756706, 21.369845382213857, 20.39126555606482, 19.170173191104645, 19.359230151779645, 19.29614948547293, 19.48539148439307, 18.603002309079653, 20.53081896920313, 21.453226991111006, 20.444343217149264, 20.40279513092416, 20.346686294633336, 20.148413317507895, 19.983479881061005, 20.027606074433194, 19.92475814295086, 20.061888718260636, 20.030118658386467, 20.125428838008972, 19.806975107572256, 20.560746908625106, 20.416081836627235, 20.504430975575, 20.373669611140784, 20.621910384272596, 20.038015962611635, 21.12472292432638, 18.951309000896888, 21.789699227594518, 20.125428838008972, 20.61651214509004, 20.714415203790725, 20.799300524149192, 20.671972543611492, 20.543084851064524, 20.671972543611492, 20.500122286882203, 20.252004864295685, 20.509553360253165, 21.085740143619446, 20.125428838008972, 19.608133624401994, 19.879295768977464, 19.33697147982652, 20.90777465754159, 21.12472292432638, 20.799300524149192, 21.067564510525806, 18.582812566153425, 18.5159909328476, 18.62736032169064, 18.683045016112164, 18.683045016112164, 18.683045016112164, 18.5159909328476]}, {"children_left": [1, 2, 3, -1, -1, 6, -1, -1, 9, 10, 11, 12, 13, 14, -1, 16, 17, -1, -1, 20, 21, -1, -1, -1, -1, 26, 27, 28, -1, -1, 31, -1, 33, 34, 35, 36, 37, 38, 39, -1, -1, 42, -1, -1, -1, 46, -1, 48, 49, -1, -1, -1, 53, 54, -1, 56, 57, -1, -1, -1, -1, -1, 63, -1, -1, 66, 67, 68, 69, -1, -1, 72, 73, 74, -1, -1, 77, -1, -1, -1, 81, 82, -1, 84, -1, -1, -1, 88, 89, 90, 91, -1, -1, 94, 95, -1, -1, -1, -1, 100, 101, 102, 103, 104, -1, 106, 107, -1, 109, 110, 111, -1, -1, -1, -1, -1, 117, -1, 119, 120, -1, -1, -1, 124, -1, 126, -1, 128, -1, -1, 131, 132, 133, -1, -1, -1, 137, 138, 139, -1, -1, -1, -1, 144, -1, -1, 147, -1, 149, -1, 151, -1, -1, 154, 155, 156, 157, 158, 159, 160, 161, 162, -1, 164, -1, -1, -1, -1, -1, 170, 171, 172, 173, 174, -1, 176, 177, 178, -1, -1, -1, 182, -1, 184, 185, 186, 187, 188, -1, 190, 191, -1, -1, 194, -1, 196, -1, -1, 199, 200, 201, -1, -1, -1, 205, -1, -1, 208, 209, 210, -1, -1, -1, 214, -1, -1, 217, 218, -1, -1, 221, -1, -1, 224, -1, -1, 227, -1, 229, -1, -1, 232, -1, 234, -1, -1, 237, -1, 239, -1, -1, -1, 243, 244, 245, 246, -1, -1, 249, -1, 251, -1, -1, 254, -1, -1, 257, -1, -1, 260, 261, 262, -1, 264, 265, 266, 267, -1, -1, -1, -1, -1, 273, 274, 275, -1, -1, -1, 279, -1, -1, 282, -1, 284, 285, -1, 287, -1, -1, 290, 291, -1, -1, 294, 295, -1, -1, 298, -1, -1, 301, 302, 303, -1, -1, -1, 307, -1, 309, 310, -1, 312, -1, 314, -1, -1, 317, 318, 319, 320, -1, -1, 323, -1, 325, -1, 327, -1, -1, 330, -1, 332, 333, 334, -1, -1, 337, -1, -1, -1, 341, -1, -1, 344, 345, 346, -1, -1, 349, 350, 351, -1, 353, -1, -1, -1, 357, -1, -1, 360, -1, -1, 363, 364, 365, -1, 367, 368, 369, 370, -1, 372, 373, -1, -1, 376, 377, -1, -1, -1, 381, 382, 383, -1, -1, -1, 387, 388, 389, 390, 391, 392, -1, 394, 395, 396, 397, -1, 399, -1, -1, -1, -1, -1, 405, 406, -1, -1, -1, 410, -1, -1, 413, 414, 415, -1, -1, 418, -1, 420, -1, 422, -1, -1, -1, -1, 427, 428, 429, -1, -1, -1, -1, -1, 435, -1, -1, 438, 439, 440, -1, 442, 443, -1, 445, -1, -1, 448, -1, -1, 451, 452, -1, 454, -1, -1, -1, 458, 459, -1, -1, 462, 463, 464, 465, 466, -1, -1, 469, 470, 471, -1, -1, 474, -1, -1, 477, -1, -1, 480, -1, -1, 483, 484, -1, 486, 487, -1, -1, -1, -1, 492, -1, -1, 495, -1, 497, -1, 499, -1, -1], "children_right": [8, 5, 4, -1, -1, 7, -1, -1, 362, 153, 146, 25, 24, 15, -1, 19, 18, -1, -1, 23, 22, -1, -1, -1, -1, 65, 30, 29, -1, -1, 32, -1, 62, 61, 52, 45, 44, 41, 40, -1, -1, 43, -1, -1, -1, 47, -1, 51, 50, -1, -1, -1, 60, 55, -1, 59, 58, -1, -1, -1, -1, -1, 64, -1, -1, 87, 80, 71, 70, -1, -1, 79, 76, 75, -1, -1, 78, -1, -1, -1, 86, 83, -1, 85, -1, -1, -1, 99, 98, 93, 92, -1, -1, 97, 96, -1, -1, -1, -1, 143, 130, 123, 116, 105, -1, 115, 108, -1, 114, 113, 112, -1, -1, -1, -1, -1, 118, -1, 122, 121, -1, -1, -1, 125, -1, 127, -1, 129, -1, -1, 136, 135, 134, -1, -1, -1, 142, 141, 140, -1, -1, -1, -1, 145, -1, -1, 148, -1, 150, -1, 152, -1, -1, 343, 300, 259, 242, 169, 168, 167, 166, 163, -1, 165, -1, -1, -1, -1, -1, 241, 236, 231, 226, 175, -1, 181, 180, 179, -1, -1, -1, 183, -1, 223, 216, 207, 198, 189, -1, 193, 192, -1, -1, 195, -1, 197, -1, -1, 204, 203, 202, -1, -1, -1, 206, -1, -1, 213, 212, 211, -1, -1, -1, 215, -1, -1, 220, 219, -1, -1, 222, -1, -1, 225, -1, -1, 228, -1, 230, -1, -1, 233, -1, 235, -1, -1, 238, -1, 240, -1, -1, -1, 256, 253, 248, 247, -1, -1, 250, -1, 252, -1, -1, 255, -1, -1, 258, -1, -1, 281, 272, 263, -1, 271, 270, 269, 268, -1, -1, -1, -1, -1, 278, 277, 276, -1, -1, -1, 280, -1, -1, 283, -1, 289, 286, -1, 288, -1, -1, 293, 292, -1, -1, 297, 296, -1, -1, 299, -1, -1, 306, 305, 304, -1, -1, -1, 308, -1, 316, 311, -1, 313, -1, 315, -1, -1, 340, 329, 322, 321, -1, -1, 324, -1, 326, -1, 328, -1, -1, 331, -1, 339, 336, 335, -1, -1, 338, -1, -1, -1, 342, -1, -1, 359, 348, 347, -1, -1, 356, 355, 352, -1, 354, -1, -1, -1, 358, -1, -1, 361, -1, -1, 494, 437, 366, -1, 434, 433, 380, 371, -1, 375, 374, -1, -1, 379, 378, -1, -1, -1, 386, 385, 384, -1, -1, -1, 426, 425, 412, 409, 404, 393, -1, 403, 402, 401, 398, -1, 400, -1, -1, -1, -1, -1, 408, 407, -1, -1, -1, 411, -1, -1, 424, 417, 416, -1, -1, 419, -1, 421, -1, 423, -1, -1, -1, -1, 432, 431, 430, -1, -1, -1, -1, -1, 436, -1, -1, 457, 450, 441, -1, 447, 444, -1, 446, -1, -1, 449, -1, -1, 456, 453, -1, 455, -1, -1, -1, 461, 460, -1, -1, 491, 482, 479, 468, 467, -1, -1, 476, 473, 472, -1, -1, 475, -1, -1, 478, -1, -1, 481, -1, -1, 490, 485, -1, 489, 488, -1, -1, -1, -1, 493, -1, -1, 496, -1, 498, -1, 500, -1, -1], "feature": [12, 2, 1, -2, -2, 1, -2, -2, 4, 8, 2, 0, 9, 2, -2, 0, 7, -2, -2, 0, 7, -2, -2, -2, -2, 11, 9, 5, -2, -2, 1, -2, 9, 9, 2, 5, 1, 9, 7, -2, -2, 9, -2, -2, -2, 6, -2, 9, 9, -2, -2, -2, 6, 9, -2, 2, 9, -2, -2, -2, -2, -2, 6, -2, -2, 11, 6, 11, 2, -2, -2, 0, 9, 3, -2, -2, 0, -2, -2, -2, 9, 2, -2, 3, -2, -2, -2, 9, 1, 9, 1, -2, -2, 11, 7, -2, -2, -2, -2, 0, 9, 9, 9, 7, -2, 0, 9, -2, 9, 9, 2, -2, -2, -2, -2, -2, 1, -2, 2, 2, -2, -2, -2, 11, -2, 2, -2, 1, -2, -2, 7, 9, 11, -2, -2, -2, 3, 5, 9, -2, -2, -2, -2, 9, -2, -2, 9, -2, 11, -2, 10, -2, -2, 9, 9, 9, 9, 1, 9, 9, 0, 7, -2, 2, -2, -2, -2, -2, -2, 9, 6, 1, 2, 9, -2, 11, 9, 1, -2, -2, -2, 11, -2, 9, 2, 5, 1, 9, -2, 2, 7, -2, -2, 7, -2, 0, -2, -2, 8, 7, 2, -2, -2, -2, 9, -2, -2, 1, 9, 0, -2, -2, -2, 2, -2, -2, 9, 5, -2, -2, 2, -2, -2, 2, -2, -2, 8, -2, 7, -2, -2, 2, -2, 2, -2, -2, 9, -2, 3, -2, -2, -2, 8, 1, 2, 5, -2, -2, 6, -2, 1, -2, -2, 1, -2, -2, 5, -2, -2, 9, 2, 2, -2, 1, 5, 6, 11, -2, -2, -2, -2, -2, 11, 1, 5, -2, -2, -2, 6, -2, -2, 2, -2, 9, 0, -2, 7, -2, -2, 11, 9, -2, -2, 1, 9, -2, -2, 10, -2, -2, 7, 2, 5, -2, -2, -2, 9, -2, 5, 11, -2, 9, -2, 8, -2, -2, 8, 2, 2, 11, -2, -2, 0, -2, 11, -2, 1, -2, -2, 9, -2, 6, 11, 2, -2, -2, 1, -2, -2, -2, 2, -2, -2, 2, 1, 5, -2, -2, 11, 6, 9, -2, 2, -2, -2, -2, 2, -2, -2, 1, -2, -2, 9, 9, 0, -2, 0, 9, 2, 9, -2, 7, 1, -2, -2, 9, 11, -2, -2, -2, 7, 9, 9, -2, -2, -2, 9, 9, 9, 2, 8, 1, -2, 0, 1, 3, 5, -2, 8, -2, -2, -2, -2, -2, 1, 1, -2, -2, -2, 5, -2, -2, 9, 2, 11, -2, -2, 0, -2, 2, -2, 5, -2, -2, -2, -2, 2, 8, 11, -2, -2, -2, -2, -2, 5, -2, -2, 1, 6, 8, -2, 2, 2, -2, 7, -2, -2, 7, -2, -2, 3, 5, -2, 1, -2, -2, -2, 8, 1, -2, -2, 2, 8, 1, 11, 2, -2, -2, 2, 5, 6, -2, -2, 2, -2, -2, 5, -2, -2, 11, -2, -2, 2, 11, -2, 2, 6, -2, -2, -2, -2, 0, -2, -2, 2, -2, 5, -2, 2, -2, -2], "threshold": [0.5, 4.0, 1.5, -2.0, -2.0, 4.0, -2.0, -2.0, 0.5, 0.5, 4.5, 89.0, 22.5, 2.5, -2.0, 28.5, 0.5, -2.0, -2.0, 35.0, 0.5, -2.0, -2.0, -2.0, -2.0, 0.5, 3.5, 0.5, -2.0, -2.0, 1.5, -2.0, 32.5, 27.0, 1.5, 0.5, 2.5, 17.0, 0.5, -2.0, -2.0, 20.5, -2.0, -2.0, -2.0, 0.5, -2.0, 17.0, 15.0, -2.0, -2.0, -2.0, 0.5, 8.0, -2.0, 2.5, 12.5, -2.0, -2.0, -2.0, -2.0, -2.0, 0.5, -2.0, -2.0, 6.0, 0.5, 1.5, 2.5, -2.0, -2.0, 617.5, 22.5, 0.5, -2.0, -2.0, 245.0, -2.0, -2.0, -2.0, 22.5, 2.0, -2.0, 0.5, -2.0, -2.0, -2.0, 4.5, 3.5, 2.0, 2.5, -2.0, -2.0, 7.5, 0.5, -2.0, -2.0, -2.0, -2.0, 1212.5, 30.0, 25.5, 18.5, 0.5, -2.0, 392.5, 6.5, -2.0, 12.0, 8.0, 3.0, -2.0, -2.0, -2.0, -2.0, -2.0, 2.5, -2.0, 2.5, 1.5, -2.0, -2.0, -2.0, 7.5, -2.0, 2.5, -2.0, 4.0, -2.0, -2.0, 0.5, 33.5, 7.5, -2.0, -2.0, -2.0, 0.5, 0.5, 33.0, -2.0, -2.0, -2.0, -2.0, 33.5, -2.0, -2.0, 18.5, -2.0, 3.5, -2.0, 1.5, -2.0, -2.0, 31.5, 19.5, 14.5, 13.5, 2.5, 12.5, 7.5, 480.0, 0.5, -2.0, 2.5, -2.0, -2.0, -2.0, -2.0, -2.0, 12.5, 0.5, 4.5, 5.5, 1.0, -2.0, 0.5, 10.0, 3.5, -2.0, -2.0, -2.0, 4.5, -2.0, 6.5, 3.5, 0.5, 3.5, 2.5, -2.0, 2.5, 0.5, -2.0, -2.0, 0.5, -2.0, 380.0, -2.0, -2.0, 1.5, 0.5, 2.5, -2.0, -2.0, -2.0, 4.5, -2.0, -2.0, 3.5, 4.5, 181.0, -2.0, -2.0, -2.0, 2.5, -2.0, -2.0, 4.5, 0.5, -2.0, -2.0, 4.5, -2.0, -2.0, 3.5, -2.0, -2.0, 1.5, -2.0, 0.5, -2.0, -2.0, 5.0, -2.0, 7.0, -2.0, -2.0, 3.0, -2.0, 0.5, -2.0, -2.0, -2.0, 1.5, 3.5, 2.5, 0.5, -2.0, -2.0, 0.5, -2.0, 2.5, -2.0, -2.0, 4.5, -2.0, -2.0, 0.5, -2.0, -2.0, 15.5, 2.5, 1.5, -2.0, 4.0, 0.5, 0.5, 4.0, -2.0, -2.0, -2.0, -2.0, -2.0, 4.0, 4.5, 0.5, -2.0, -2.0, -2.0, 0.5, -2.0, -2.0, 1.5, -2.0, 16.5, 121.5, -2.0, 0.5, -2.0, -2.0, 4.0, 18.5, -2.0, -2.0, 3.5, 18.5, -2.0, -2.0, 2.5, -2.0, -2.0, 0.5, 4.0, 0.5, -2.0, -2.0, -2.0, 20.5, -2.0, 0.5, 4.0, -2.0, 21.5, -2.0, 1.5, -2.0, -2.0, 1.5, 3.5, 2.5, 4.0, -2.0, -2.0, 280.0, -2.0, 4.0, -2.0, 4.0, -2.0, -2.0, 30.5, -2.0, 0.5, 4.0, 4.5, -2.0, -2.0, 3.5, -2.0, -2.0, -2.0, 3.5, -2.0, -2.0, 3.5, 2.5, 0.5, -2.0, -2.0, 4.0, 0.5, 33.0, -2.0, 2.0, -2.0, -2.0, -2.0, 2.5, -2.0, -2.0, 4.5, -2.0, -2.0, 31.5, 29.0, 131.0, -2.0, 660.0, 25.5, 2.5, 2.0, -2.0, 0.5, 2.5, -2.0, -2.0, 13.5, 4.0, -2.0, -2.0, -2.0, 0.5, 21.5, 11.0, -2.0, -2.0, -2.0, 20.0, 18.5, 5.0, 4.5, 1.5, 2.5, -2.0, 420.0, 6.5, 0.5, 0.5, -2.0, 0.5, -2.0, -2.0, -2.0, -2.0, -2.0, 4.0, 2.5, -2.0, -2.0, -2.0, 0.5, -2.0, -2.0, 16.0, 3.5, 4.0, -2.0, -2.0, 296.0, -2.0, 4.5, -2.0, 0.5, -2.0, -2.0, -2.0, -2.0, 3.5, 1.5, 4.0, -2.0, -2.0, -2.0, -2.0, -2.0, 0.5, -2.0, -2.0, 3.5, 0.5, 0.5, -2.0, 4.0, 2.5, -2.0, 0.5, -2.0, -2.0, 0.5, -2.0, -2.0, 0.5, 0.5, -2.0, 2.5, -2.0, -2.0, -2.0, 0.5, 4.5, -2.0, -2.0, 5.5, 1.5, 4.5, 4.0, 3.0, -2.0, -2.0, 3.5, 0.5, 0.5, -2.0, -2.0, 2.5, -2.0, -2.0, 0.5, -2.0, -2.0, 4.0, -2.0, -2.0, 4.5, 4.0, -2.0, 3.5, 0.5, -2.0, -2.0, -2.0, -2.0, 408.5, -2.0, -2.0, 2.5, -2.0, 0.5, -2.0, 3.5, -2.0, -2.0], "value": [18.97676026865059, 14.711987232183805, 14.243413832956136, 13.815511557963774, 14.45736497045232, 15.414847331025303, 15.068273812173887, 15.76142084987672, 19.023625906413947, 18.742985991703232, 18.337530249738197, 18.430202125949222, 17.203965215755545, 17.418078717683386, 18.17221939747438, 17.29238860438489, 17.64035689243908, 17.370858648025116, 17.909855136853043, 17.118404460357795, 16.86595027269047, 17.05418904934434, 16.677711496036597, 17.370858648025116, 16.454567959008102, 18.529626740289245, 17.894766617361807, 18.848814101686784, 18.951309000896888, 18.643824303266577, 17.805324665706337, 16.811242881518265, 17.87159678465221, 17.972348909527973, 17.886225712388736, 18.01010840523744, 17.83141582641013, 17.677709645358412, 17.56494544848541, 17.553180200057167, 17.57671069691365, 17.828061907855755, 17.989897843244528, 17.50439003707821, 18.36938746009113, 18.188800984064745, 18.47331100877706, 17.96119296429489, 17.689063300430732, 17.622173069956816, 17.72250841566769, 18.36938746009113, 17.567670216492058, 17.60047214456988, 17.72753358339242, 17.575059856805375, 17.543651048037745, 17.622173069956816, 17.50439003707821, 17.622173069956816, 17.370858648025116, 20.125428838008972, 17.216707972959764, 17.216707972959764, 17.216707972959764, 18.82199653374267, 19.98737999661243, 20.43738287217455, 18.898436472812236, 19.11382792951231, 18.683045016112164, 20.674143856691828, 20.466146336653175, 20.35502135045963, 20.44882899256044, 20.29248292239242, 20.65135464697576, 20.617905322399697, 20.71825329612789, 21.006939888753664, 19.02308812040788, 20.227229270006397, 17.822843761378564, 20.828325647163354, 21.006939888753664, 20.29248292239242, 16.012735246411598, 18.34721067849944, 16.969758264518784, 17.723379488172416, 19.404236927060566, 18.683045016112164, 20.125428838008972, 17.163093675209698, 17.110426710724532, 16.951004817371683, 17.216707972959764, 17.426428497635523, 13.955273369904273, 18.660268045313227, 18.845445585294108, 18.434821688616985, 18.962381705783148, 19.137619149926692, 19.519293035953808, 19.023116984118552, 18.950858458431185, 19.393635822265736, 18.82435064019274, 18.875743924750264, 18.838385782622733, 18.85674566846604, 18.826145858727198, 19.06253463538792, 18.5159909328476, 19.673443715304877, 18.506764351009945, 18.064005814299346, 18.617453985187595, 18.683045062266007, 18.68304508534293, 18.683045016112164, 18.420680753952364, 17.247811649993118, 16.380459992348886, 17.53692886920786, 18.184958423089522, 17.40732295843153, 17.370858648025116, 17.553180200057167, 19.666693378648343, 17.667471337754797, 18.40026975815057, 17.909855136853043, 18.8906843794481, 16.934672917359027, 20.555236507934367, 20.82126028130718, 20.99885669263899, 21.290698654646796, 20.415172768623393, 19.755681813316283, 19.624153301129528, 17.215883233462385, 16.811242881518265, 17.822843761378564, 17.225467735205978, 15.1764873675101, 19.274448102901857, 20.125428838008972, 19.06170291912508, 19.17209683735327, 18.951309000896888, 19.00785657690651, 19.096964887441175, 18.92796160069058, 19.232094005919993, 19.043654060884393, 18.450099190562604, 18.88803707412244, 18.38303230465735, 18.280729304001333, 18.33729914588288, 18.224159462119786, 18.132998684833918, 18.31532023940565, 18.7922443072814, 19.519293035953808, 14.508658238524095, 19.127253338394492, 19.094025143355683, 19.00339574367555, 18.946654632855367, 19.00631631606068, 20.36659089443625, 18.948432291448956, 18.30141177831448, 17.386723820320885, 18.258161826219297, 16.951004817371683, 19.673443715304877, 19.025458543012583, 20.030118658386467, 19.00095463775956, 19.03836777076477, 18.956570874950057, 18.86055466113855, 18.9848652325866, 18.420680753952364, 19.065463015248636, 18.814909431179956, 19.11382792951231, 18.5159909328476, 19.165684448876103, 19.00846741441004, 19.20498870749262, 19.29614948547293, 19.11382792951231, 18.777680946839848, 18.534601671159994, 18.42211101450142, 18.5159909328476, 18.234351177809064, 18.703337656147852, 18.951309000896888, 18.951309000896888, 18.951309000896888, 19.11659789796924, 18.98774102795305, 19.04670978984123, 19.1614830191872, 19.008452046725903, 18.5159909328476, 19.5031685080178, 19.162618093443648, 19.673443715304877, 19.474617881776542, 19.736272322216372, 19.92475814295086, 19.673443715304877, 18.951309000896888, 18.951309000896888, 18.951309000896888, 18.527054953026976, 19.088510121656228, 18.24632736871235, 18.215799013590267, 15.894952224644102, 18.989414609905655, 18.951309000896888, 19.00846741441004, 19.75521546204295, 19.035866388448003, 19.994998486574598, 19.92475814295086, 20.030118658386467, 19.49140020349168, 21.12873094572124, 19.193703704904486, 19.035866388448003, 19.6146032154551, 21.453226991111002, 19.925895621732906, 19.663703540405805, 19.592439280805685, 19.457327045685815, 18.951309000896888, 19.583831556883048, 19.676884427755606, 19.701614592192207, 19.66204632909365, 19.673443715304877, 19.654448071619495, 19.89531238410621, 19.806975107572256, 19.92475814295086, 20.817348698245024, 20.844420959388774, 20.799300524149192, 18.246969475937796, 17.620654447259458, 17.528026023956762, 17.147715103853763, 17.548042388172707, 17.521600692124643, 17.584602763845673, 17.66832923131622, 17.740073393752812, 17.453096744006448, 17.528785118865308, 17.41659723925625, 17.689064767095754, 17.885307085267154, 17.696373964117267, 17.654217365030167, 17.6867115897055, 17.637970252692504, 17.822843761378564, 18.137217913467, 18.31532023940565, 18.048166750497675, 19.136996095638587, 17.6867115897055, 19.217567457079312, 19.629861481429565, 19.499090328704316, 19.695247057792187, 19.717050400279497, 19.673443715304877, 19.01142044490419, 18.507108285854986, 18.31532023940565, 18.603002309079653, 19.179524497920593, 19.811758332335664, 19.673443715304877, 20.088387566397234, 18.86340758071306, 18.819456870621142, 18.951309000896888, 19.816436022465055, 20.51243095040951, 20.25032665430005, 20.125428838008972, 20.500122286882203, 20.9055873945737, 19.700436867807642, 20.536936259959738, 19.640686911225348, 19.045783459789767, 20.435583765827964, 18.582516691110367, 18.420680753952364, 18.663434659689372, 18.643824303266577, 18.683045016112164, 19.739837486464612, 19.628131915101303, 19.754734450005262, 19.511802084356656, 18.92145603792546, 19.806975107572256, 19.845834087123485, 19.701614592192207, 19.932365784082254, 20.088387566397234, 19.893360338503513, 19.755681813316283, 19.939253180232587, 19.47339548355202, 18.420680753952364, 19.60498482475198, 19.77768799023675, 19.364215572748858, 19.806975107572256, 18.92145603792546, 20.191160407724645, 20.435583765827964, 19.946737049621326, 19.432281659267208, 20.298365343281176, 20.671972543611492, 19.92475814295086, 17.91479463434802, 17.705552123887436, 18.70048864934865, 17.72753358339242, 19.673443715304877, 17.50656481879519, 17.350552257816553, 17.241903932960447, 17.370858648025116, 17.155934122917333, 17.034386422832473, 17.216707972959764, 17.622173069956816, 17.87059412774536, 17.50439003707821, 18.603002309079653, 18.751764676190362, 19.413932520666354, 18.420680753952364, 19.756407905936435, 19.889784881862337, 19.441085855510153, 17.867295523158884, 19.496306568925988, 19.430077742249132, 19.479702268239304, 19.147160767671902, 19.583831556883048, 19.084779226356027, 19.231328836354997, 19.11382792951231, 19.583831556883048, 18.889379746357395, 18.920996690172494, 18.951309000896888, 18.8906843794481, 18.826145858727198, 19.54304350644262, 20.194272650352037, 20.493647038645072, 20.125428838008972, 21.230083439917273, 19.29614948547293, 19.474493070241625, 19.370013006150582, 19.513751387640426, 19.371800341419913, 19.470620013994207, 19.603550936643156, 19.00846741441004, 19.649326592199547, 19.686008965811002, 19.654726266485962, 19.56558150670282, 19.33697147982652, 19.71798819128702, 19.6146032154551, 19.92475814295086, 19.729013566305248, 20.030118658386467, 19.20913810886209, 19.0053617847229, 18.83405136764593, 19.00846741441004, 18.746843344263876, 19.519293035953808, 18.92711181483557, 19.00846741441004, 18.683045016112164, 19.860742833957225, 19.95829991910106, 20.08955650343293, 20.02811464772585, 20.21244021484709, 19.85985748085216, 19.687628350256592, 19.91726719105068, 19.701614592192207, 20.025093490479918, 19.92475814295086, 20.125428838008972, 19.519293035953808, 14.914123179965662, 20.0317200787272, 19.76409501802987, 19.559117829846755, 19.729013566305248, 19.502485917693924, 20.58400377076233, 21.369845382213857, 18.603002309079653, 20.37383852239424, 20.617905322399697, 20.29248292239242, 20.380030114358245, 20.008075485432673, 20.196119082201797, 19.673443715304877, 20.345454901315197, 20.471768901340052, 20.125428838008972, 20.644938933005594, 20.671972543611492, 20.617905322399697, 20.250719401296557, 20.29248292239242, 20.125428838008972, 19.766305146729515, 19.5747351903748, 19.92475814295086, 19.487229452230785, 19.519293035953808, 19.476541590989772, 20.245230037616313, 20.536642589695333, 21.48598405669781, 21.453226991111006, 21.58425525345822, 20.424955358283277, 20.337970164156243, 20.13569490665008, 20.052647846417678, 20.329795753341585, 20.442228308537803, 20.161146920547257, 19.854685055757745, 19.712976725980564, 20.07777374819772, 20.125428838008972, 20.030118658386467, 19.469778711169127, 19.729013566305248, 18.951309000896888, 20.208955880200698, 20.125428838008972, 20.29248292239242, 20.467883147579677, 19.806975107572256, 21.789699227594518, 20.554693654341413, 20.60664733783095, 20.671972543611492, 20.565819084218113, 20.530434597753654, 20.560746908625106, 20.500122286882203, 20.671972543611492, 19.879295768977464, 20.929469484220068, 21.12472292432638, 20.799300524149192, 18.597054192118893, 19.402759220109843, 18.529912106452983, 18.5159909328476, 18.59951797447988, 18.683045016112164, 18.5159909328476]}, {"children_left": [1, 2, 3, 4, 5, -1, -1, 8, 9, -1, -1, -1, 13, 14, 15, 16, 17, -1, 19, 20, -1, -1, -1, 24, 25, 26, -1, 28, -1, -1, 31, 32, 33, -1, -1, 36, 37, 38, 39, -1, -1, 42, -1, -1, -1, 46, -1, -1, -1, 50, 51, 52, -1, -1, 55, -1, 57, 58, -1, -1, -1, 62, 63, -1, -1, 66, -1, -1, -1, 70, 71, 72, 73, 74, -1, 76, -1, 78, -1, -1, 81, 82, 83, -1, 85, 86, 87, -1, -1, 90, 91, -1, 93, -1, -1, -1, 97, -1, -1, 100, -1, -1, 103, -1, 105, 106, -1, 108, -1, -1, 111, 112, 113, -1, -1, -1, 117, -1, -1, 120, -1, 122, -1, 124, 125, -1, -1, -1, 129, 130, -1, -1, 133, 134, 135, -1, -1, 138, -1, 140, -1, -1, 143, 144, 145, -1, -1, -1, -1, 150, 151, 152, 153, -1, 155, -1, -1, 158, 159, -1, -1, 162, -1, -1, -1, 166, -1, 168, -1, 170, 171, -1, -1, 174, -1, 176, 177, -1, -1, -1, 181, 182, -1, -1, 185, -1, -1, 188, 189, -1, 191, 192, 193, 194, -1, 196, -1, -1, 199, 200, 201, -1, -1, -1, 205, -1, 207, 208, 209, 210, -1, 212, 213, -1, -1, -1, -1, -1, -1, 220, 221, 222, 223, 224, -1, -1, 227, 228, 229, -1, -1, 232, -1, -1, -1, 236, -1, 238, -1, -1, 241, 242, -1, 244, -1, -1, 247, 248, 249, -1, -1, 252, 253, -1, 255, 256, -1, 258, -1, -1, 261, 262, 263, 264, -1, -1, -1, -1, -1, 270, -1, -1, 273, -1, -1, 276, 277, -1, 279, -1, -1, -1, 283, 284, 285, -1, -1, -1, -1, 290, 291, 292, -1, -1, -1, 296, -1, 298, 299, 300, -1, 302, -1, -1, -1, -1, 307, 308, -1, -1, 311, 312, 313, 314, 315, 316, 317, 318, -1, -1, -1, 322, -1, -1, -1, 326, 327, -1, 329, 330, 331, 332, -1, 334, 335, -1, -1, 338, 339, 340, 341, 342, 343, -1, -1, -1, 347, -1, 349, -1, -1, -1, -1, 354, -1, -1, -1, 358, 359, -1, -1, -1, 363, 364, 365, -1, -1, 368, 369, -1, -1, -1, 373, -1, -1, -1, 377, 378, 379, 380, 381, -1, 383, -1, -1, 386, 387, 388, -1, -1, -1, 392, 393, -1, 395, -1, -1, 398, -1, 400, -1, -1, 403, -1, -1, 406, -1, -1, 409, 410, -1, -1, 413, -1, 415, 416, 417, -1, -1, -1, 421, 422, -1, -1, 425, 426, 427, 428, -1, 430, 431, -1, -1, 434, -1, -1, -1, -1, 439, 440, -1, 442, -1, 444, -1, -1, 447, 448, 449, 450, -1, -1, -1, -1, -1, 456, 457, -1, -1, -1, 461, 462, 463, -1, 465, -1, -1, -1, -1], "children_right": [306, 187, 12, 7, 6, -1, -1, 11, 10, -1, -1, -1, 180, 69, 68, 23, 18, -1, 22, 21, -1, -1, -1, 49, 30, 27, -1, 29, -1, -1, 48, 35, 34, -1, -1, 45, 44, 41, 40, -1, -1, 43, -1, -1, -1, 47, -1, -1, -1, 61, 54, 53, -1, -1, 56, -1, 60, 59, -1, -1, -1, 65, 64, -1, -1, 67, -1, -1, -1, 149, 128, 119, 80, 75, -1, 77, -1, 79, -1, -1, 102, 99, 84, -1, 96, 89, 88, -1, -1, 95, 92, -1, 94, -1, -1, -1, 98, -1, -1, 101, -1, -1, 104, -1, 110, 107, -1, 109, -1, -1, 116, 115, 114, -1, -1, -1, 118, -1, -1, 121, -1, 123, -1, 127, 126, -1, -1, -1, 132, 131, -1, -1, 142, 137, 136, -1, -1, 139, -1, 141, -1, -1, 148, 147, 146, -1, -1, -1, -1, 165, 164, 157, 154, -1, 156, -1, -1, 161, 160, -1, -1, 163, -1, -1, -1, 167, -1, 169, -1, 173, 172, -1, -1, 175, -1, 179, 178, -1, -1, -1, 184, 183, -1, -1, 186, -1, -1, 289, 190, -1, 282, 219, 198, 195, -1, 197, -1, -1, 204, 203, 202, -1, -1, -1, 206, -1, 218, 217, 216, 211, -1, 215, 214, -1, -1, -1, -1, -1, -1, 275, 240, 235, 226, 225, -1, -1, 234, 231, 230, -1, -1, 233, -1, -1, -1, 237, -1, 239, -1, -1, 246, 243, -1, 245, -1, -1, 272, 251, 250, -1, -1, 269, 254, -1, 260, 257, -1, 259, -1, -1, 268, 267, 266, 265, -1, -1, -1, -1, -1, 271, -1, -1, 274, -1, -1, 281, 278, -1, 280, -1, -1, -1, 288, 287, 286, -1, -1, -1, -1, 295, 294, 293, -1, -1, -1, 297, -1, 305, 304, 301, -1, 303, -1, -1, -1, -1, 310, 309, -1, -1, 460, 455, 376, 325, 324, 321, 320, 319, -1, -1, -1, 323, -1, -1, -1, 375, 328, -1, 362, 357, 356, 333, -1, 337, 336, -1, -1, 353, 352, 351, 346, 345, 344, -1, -1, -1, 348, -1, 350, -1, -1, -1, -1, 355, -1, -1, -1, 361, 360, -1, -1, -1, 372, 367, 366, -1, -1, 371, 370, -1, -1, -1, 374, -1, -1, -1, 408, 405, 402, 385, 382, -1, 384, -1, -1, 391, 390, 389, -1, -1, -1, 397, 394, -1, 396, -1, -1, 399, -1, 401, -1, -1, 404, -1, -1, 407, -1, -1, 412, 411, -1, -1, 414, -1, 420, 419, 418, -1, -1, -1, 424, 423, -1, -1, 438, 437, 436, 429, -1, 433, 432, -1, -1, 435, -1, -1, -1, -1, 446, 441, -1, 443, -1, 445, -1, -1, 454, 453, 452, 451, -1, -1, -1, -1, -1, 459, 458, -1, -1, -1, 468, 467, 464, -1, 466, -1, -1, -1, -1], "feature": [4, 9, 9, 1, 8, -2, -2, 6, 7, -2, -2, -2, 0, 8, 0, 0, 0, -2, 9, 7, -2, -2, -2, 2, 9, 2, -2, 1, -2, -2, 11, 9, 2, -2, -2, 5, 3, 9, 9, -2, -2, 2, -2, -2, -2, 9, -2, -2, -2, 9, 9, 7, -2, -2, 5, -2, 3, 9, -2, -2, -2, 1, 9, -2, -2, 9, -2, -2, -2, 9, 6, 9, 11, 1, -2, 1, -2, 2, -2, -2, 1, 9, 9, -2, 9, 2, 7, -2, -2, 0, 0, -2, 3, -2, -2, -2, 3, -2, -2, 2, -2, -2, 0, -2, 5, 8, -2, 2, -2, -2, 2, 9, 2, -2, -2, -2, 1, -2, -2, 9, -2, 5, -2, 2, 1, -2, -2, -2, 5, 1, -2, -2, 9, 9, 2, -2, -2, 8, -2, 2, -2, -2, 8, 2, 2, -2, -2, -2, -2, 9, 3, 1, 5, -2, 2, -2, -2, 2, 2, -2, -2, 1, -2, -2, -2, 2, -2, 10, -2, 2, 1, -2, -2, 0, -2, 5, 1, -2, -2, -2, 8, 0, -2, -2, 9, -2, -2, 9, 12, -2, 0, 2, 1, 7, -2, 5, -2, -2, 9, 3, 9, -2, -2, -2, 7, -2, 3, 1, 9, 11, -2, 9, 1, -2, -2, -2, -2, -2, -2, 9, 9, 9, 11, 9, -2, -2, 1, 9, 1, -2, -2, 9, -2, -2, -2, 11, -2, 5, -2, -2, 8, 1, -2, 11, -2, -2, 2, 7, 2, -2, -2, 2, 1, -2, 11, 9, -2, 2, -2, -2, 6, 0, 1, 3, -2, -2, -2, -2, -2, 11, -2, -2, 7, -2, -2, 1, 9, -2, 3, -2, -2, -2, 5, 0, 0, -2, -2, -2, -2, 11, 6, 8, -2, -2, -2, 7, -2, 3, 9, 8, -2, 2, -2, -2, -2, -2, 12, 5, -2, -2, 2, 9, 9, 7, 1, 5, 6, 2, -2, -2, -2, 2, -2, -2, -2, 9, 0, -2, 9, 8, 9, 1, -2, 2, 9, -2, -2, 0, 0, 1, 1, 5, 2, -2, -2, -2, 2, -2, 2, -2, -2, -2, -2, 5, -2, -2, -2, 5, 0, -2, -2, -2, 1, 1, 5, -2, -2, 0, 9, -2, -2, -2, 6, -2, -2, -2, 1, 8, 2, 1, 5, -2, 6, -2, -2, 7, 5, 8, -2, -2, -2, 5, 6, -2, 2, -2, -2, 9, -2, 6, -2, -2, 7, -2, -2, 2, -2, -2, 8, 1, -2, -2, 9, -2, 9, 2, 2, -2, -2, -2, 2, 2, -2, -2, 5, 8, 1, 7, -2, 2, 6, -2, -2, 2, -2, -2, -2, -2, 2, 6, -2, 7, -2, 11, -2, -2, 2, 8, 6, 2, -2, -2, -2, -2, -2, 1, 1, -2, -2, -2, 8, 9, 5, -2, 0, -2, -2, -2, -2], "threshold": [0.5, 18.5, 0.5, 2.5, 0.5, -2.0, -2.0, 0.5, 0.5, -2.0, -2.0, -2.0, 518.0, 0.5, 430.5, 85.5, 25.0, -2.0, 4.5, 0.5, -2.0, -2.0, -2.0, 2.5, 4.5, 1.5, -2.0, 2.5, -2.0, -2.0, 4.0, 11.5, 1.5, -2.0, -2.0, 0.5, 0.5, 17.0, 15.0, -2.0, -2.0, 1.5, -2.0, -2.0, -2.0, 16.0, -2.0, -2.0, -2.0, 13.5, 4.5, 0.5, -2.0, -2.0, 0.5, -2.0, 0.5, 7.5, -2.0, -2.0, -2.0, 2.5, 15.0, -2.0, -2.0, 16.5, -2.0, -2.0, -2.0, 14.5, 0.5, 12.5, 4.0, 2.5, -2.0, 3.5, -2.0, 2.5, -2.0, -2.0, 3.5, 6.5, 2.5, -2.0, 4.5, 2.5, 0.5, -2.0, -2.0, 380.0, 3.5, -2.0, 0.5, -2.0, -2.0, -2.0, 0.5, -2.0, -2.0, 3.5, -2.0, -2.0, 326.0, -2.0, 0.5, 1.5, -2.0, 5.5, -2.0, -2.0, 3.5, 4.5, 2.5, -2.0, -2.0, -2.0, 5.0, -2.0, -2.0, 13.5, -2.0, 0.5, -2.0, 3.0, 3.5, -2.0, -2.0, -2.0, 0.5, 2.5, -2.0, -2.0, 9.5, 4.5, 2.5, -2.0, -2.0, 1.5, -2.0, 2.5, -2.0, -2.0, 1.5, 2.5, 1.5, -2.0, -2.0, -2.0, -2.0, 15.5, 0.5, 3.5, 0.5, -2.0, 1.5, -2.0, -2.0, 3.5, 2.5, -2.0, -2.0, 4.5, -2.0, -2.0, -2.0, 1.5, -2.0, 2.5, -2.0, 2.5, 2.5, -2.0, -2.0, 121.5, -2.0, 0.5, 2.5, -2.0, -2.0, -2.0, 0.5, 617.5, -2.0, -2.0, 6.5, -2.0, -2.0, 33.5, 0.5, -2.0, 538.5, 2.5, 2.5, 0.5, -2.0, 0.5, -2.0, -2.0, 20.5, 0.5, 19.5, -2.0, -2.0, -2.0, 0.5, -2.0, 0.5, 4.5, 32.0, 4.0, -2.0, 28.5, 3.5, -2.0, -2.0, -2.0, -2.0, -2.0, -2.0, 31.5, 29.5, 25.5, 3.5, 19.5, -2.0, -2.0, 4.5, 19.5, 3.5, -2.0, -2.0, 22.0, -2.0, -2.0, -2.0, 3.5, -2.0, 0.5, -2.0, -2.0, 0.5, 3.5, -2.0, 4.0, -2.0, -2.0, 5.5, 0.5, 4.5, -2.0, -2.0, 4.5, 2.5, -2.0, 4.0, 30.5, -2.0, 3.5, -2.0, -2.0, 0.5, 430.0, 4.5, 0.5, -2.0, -2.0, -2.0, -2.0, -2.0, 4.0, -2.0, -2.0, 0.5, -2.0, -2.0, 3.5, 32.5, -2.0, 0.5, -2.0, -2.0, -2.0, 0.5, 1515.0, 770.0, -2.0, -2.0, -2.0, -2.0, 3.5, 0.5, 0.5, -2.0, -2.0, -2.0, 0.5, -2.0, 0.5, 34.5, 0.5, -2.0, 4.0, -2.0, -2.0, -2.0, -2.0, 0.5, 0.5, -2.0, -2.0, 6.5, 31.5, 20.0, 0.5, 4.5, 0.5, 0.5, 2.0, -2.0, -2.0, -2.0, 4.5, -2.0, -2.0, -2.0, 18.5, 214.0, -2.0, 5.0, 1.5, 3.5, 2.5, -2.0, 2.5, 2.0, -2.0, -2.0, 510.0, 420.0, 6.5, 3.5, 0.5, 5.0, -2.0, -2.0, -2.0, 3.5, -2.0, 4.5, -2.0, -2.0, -2.0, -2.0, 0.5, -2.0, -2.0, -2.0, 0.5, 480.0, -2.0, -2.0, -2.0, 4.5, 2.5, 0.5, -2.0, -2.0, 540.0, 10.0, -2.0, -2.0, -2.0, 0.5, -2.0, -2.0, -2.0, 3.5, 1.5, 4.0, 2.5, 0.5, -2.0, 0.5, -2.0, -2.0, 0.5, 0.5, 0.5, -2.0, -2.0, -2.0, 0.5, 0.5, -2.0, 2.5, -2.0, -2.0, 26.0, -2.0, 0.5, -2.0, -2.0, 0.5, -2.0, -2.0, 2.5, -2.0, -2.0, 0.5, 4.5, -2.0, -2.0, 21.5, -2.0, 29.0, 4.5, 3.5, -2.0, -2.0, -2.0, 2.5, 1.5, -2.0, -2.0, 0.5, 1.5, 4.5, 0.5, -2.0, 3.5, 0.5, -2.0, -2.0, 4.5, -2.0, -2.0, -2.0, -2.0, 3.5, 0.5, -2.0, 0.5, -2.0, 4.0, -2.0, -2.0, 5.5, 1.5, 0.5, 4.5, -2.0, -2.0, -2.0, -2.0, -2.0, 4.5, 3.5, -2.0, -2.0, -2.0, 1.5, 21.5, 0.5, -2.0, 296.0, -2.0, -2.0, -2.0, -2.0], "value": [19.01366740219957, 18.716368407648073, 18.489554637371842, 20.350648048200586, 19.71400969132125, 18.951309000896888, 19.96824325479604, 20.775073619453476, 20.42141629318571, 20.44882899256044, 20.36659089443625, 21.12873094572124, 18.391602352591384, 18.318046928866035, 17.7696794019061, 17.867535705090855, 17.02700361542299, 17.370858648025116, 16.830515025364637, 16.74045775492122, 17.05418904934434, 16.677711496036597, 17.370858648025116, 18.087675061908623, 17.78328031074252, 18.716728746898696, 17.989897843244528, 18.898436472812236, 18.683045016112164, 19.11382792951231, 17.561030683086287, 17.85884426132291, 17.36883139275723, 17.129696599000436, 17.72753358339242, 18.033848857239224, 17.80805512564057, 17.6476744586547, 17.567298498171056, 17.57671069691365, 17.553180200057167, 17.848614359863795, 17.989897843244528, 17.707330876483063, 18.36938746009113, 18.4402775741168, 18.487537650133905, 18.36938746009113, 14.731801689838349, 18.582316532553552, 18.96350139950434, 17.94342479043636, 17.370858648025116, 18.5159909328476, 19.25495185923805, 19.519293035953808, 19.14921538855175, 19.07963240009605, 19.11382792951231, 19.06253463538792, 19.253589871235295, 18.092221703616833, 17.485031586079437, 17.073607134447293, 17.622173069956816, 18.901808527000025, 18.5159909328476, 19.673443715304877, 15.176487367510099, 18.55552892873056, 18.792741792666387, 18.954980811052895, 18.8181693276134, 18.196363445511892, 19.519293035953808, 17.40260569124674, 18.258161826219297, 17.188716657503605, 17.426428497635523, 16.951004817371683, 18.94253050403371, 18.725323678948655, 18.82964492380561, 18.420680753952364, 18.884173479786043, 18.956122278614917, 18.715269931735836, 19.11382792951231, 18.5159909328476, 19.036406394241272, 19.014285955592406, 19.11382792951231, 18.997695626605754, 19.032005580181465, 18.826145858727198, 19.11382792951231, 18.596378284470546, 18.5159909328476, 18.757152987716434, 18.13416995809258, 17.909855136853043, 18.24632736871235, 19.159737329118762, 19.92475814295086, 19.074735016470754, 18.943297647223833, 18.8906843794481, 18.96083540314908, 18.951309000896888, 19.00846741441004, 19.17988491186829, 19.267007845168497, 19.23762291006893, 19.162618093443648, 19.287626121152453, 19.413932520666354, 19.04920051191796, 19.06253463538792, 19.035866388448003, 19.775849711689826, 21.453226991111002, 19.536224386058226, 18.951309000896888, 19.770190540122762, 19.63961744455535, 19.583831556883048, 19.806975107572256, 20.29248292239242, 18.46826375589337, 19.7605632592901, 19.673443715304877, 19.789603107285178, 18.25288050532726, 18.63233307939357, 18.19377253635783, 18.132998684833918, 18.31532023940565, 18.96125348667038, 18.92145603792546, 18.985131955917335, 18.951309000896888, 19.035866388448003, 17.721646901634408, 18.078645641979993, 17.648592523436264, 19.583831556883048, 17.326052684528467, 19.583831556883048, 14.508658238524095, 18.09213635732103, 17.7060119581682, 17.56603954312433, 17.440120572427382, 17.6867115897055, 17.35792356666801, 17.147715103853763, 17.384199624519788, 17.717142307960664, 17.668626961334454, 17.689064767095754, 17.637970252692504, 17.76565765458688, 17.72753358339242, 17.822843761378564, 18.048166750497675, 19.089624388465825, 17.6867115897055, 19.370206948217895, 18.819456870621142, 19.50789446761708, 18.994381977355264, 19.673443715304877, 18.31532023940565, 19.679065297704355, 19.499090328704316, 19.715060291504365, 19.742804675637355, 19.717050400279497, 19.755681813316283, 19.673443715304877, 20.064988242343233, 20.435374315664667, 20.29248292239242, 21.006939888753664, 19.44767812014084, 19.11382792951231, 19.6146032154551, 19.117808709021926, 19.37555655443148, 14.45736497045232, 19.428440334904373, 19.54583570411893, 18.809256964719744, 17.905574877230357, 18.064005814299346, 17.74714394016137, 17.50439003707821, 17.989897843244528, 19.021888044129007, 19.677492387324172, 19.961274563523165, 19.673443715304877, 20.536936259959738, 18.826145858727198, 18.820163630838184, 17.281246492014, 19.099966746988034, 18.93813809207405, 18.84160064590758, 18.700066121930746, 18.92145603792546, 18.66316780259829, 18.71166521232748, 18.683045050727547, 18.826145858727198, 18.420680753952364, 19.33697147982652, 19.806975107572256, 20.71825329612789, 19.783807296847893, 19.858937969304996, 19.42765724408984, 19.781073068019307, 18.959816111154726, 18.603002309079653, 19.673443715304877, 20.005052238073283, 20.239217401890258, 20.11061232936428, 20.088387566397234, 20.125428838008972, 20.399973742547736, 20.500122286882203, 20.36659089443625, 18.951309000896888, 17.778383399085683, 19.583831556883048, 16.875659320187, 16.380459992348886, 17.370858648025116, 20.03350397713018, 20.46160903011962, 20.98266273457661, 19.940555325662626, 20.125428838008972, 19.755681813316283, 19.862261955934407, 19.753089557442163, 19.304900065599266, 18.77133762260779, 20.9055873945737, 19.831035556023537, 19.97393094736374, 19.48539148439307, 20.039069542426493, 20.278531272233828, 19.92475814295086, 20.51438002508914, 20.671972543611492, 20.435583765827964, 19.919338677522823, 19.97345612399567, 19.94782080659152, 19.944264360037845, 19.94055532566263, 19.946737049621326, 19.953748217514313, 20.178538663228878, 19.432281659267208, 19.426165280559626, 18.92145603792546, 20.435583765827964, 20.844813542364605, 20.9055873945737, 20.72326583794641, 19.045022351019743, 19.428087501423605, 18.826145858727198, 19.578572912097705, 19.33697147982652, 19.65910672285477, 17.129696599000436, 17.98615437026846, 18.775522019811206, 19.26659180438444, 18.951309000896888, 20.21244021484709, 16.811242881518265, 16.012735246411598, 17.842635158048335, 17.28046327206541, 17.143779352908847, 17.216707972959764, 17.034386422832473, 17.622173069956816, 18.170568758205047, 16.934672917359027, 18.417747926374254, 18.67270685422955, 18.416084627459956, 18.8906843794481, 18.178784751465884, 17.453096744006448, 18.420680753952364, 20.21244021484709, 17.822843761378564, 19.646691791958926, 15.168422329856572, 15.068273812173887, 15.201805169084134, 19.77195807061914, 19.839802687928064, 19.888523235283674, 19.59813407071968, 20.243560783304922, 19.87361478707529, 19.45392470218582, 19.64961973558477, 19.583831556883048, 19.71540791428649, 19.06253463538792, 20.125428838008972, 20.125428838008972, 20.125428838008972, 21.230083439917273, 19.440363096532167, 19.65088588334921, 18.603002309079653, 19.702002155264804, 19.613335844774873, 19.67031067060424, 19.704354313862588, 19.00846741441004, 19.72920741741447, 19.237257968165572, 19.583831556883048, 18.8906843794481, 19.767049682741302, 19.725429660486274, 19.774600284450482, 19.646841097482483, 19.762605496534334, 19.722067334930202, 19.729013566305248, 19.673443715304877, 19.92475814295086, 19.357430099852856, 19.583831556883048, 19.131028642822667, 19.253589871235295, 19.00846741441004, 20.030118658386467, 19.20913810886209, 20.086136520029907, 20.29248292239242, 19.673443715304877, 18.683045016112164, 19.043587586481166, 18.805734861744845, 18.603002309079653, 19.00846741441004, 19.519293035953808, 20.067750686035787, 19.7857032388851, 19.551063095787573, 19.6146032154551, 19.519293035953808, 20.02034338198263, 19.884273611777736, 19.92475814295086, 19.843789080604612, 20.29248292239242, 20.91389302748784, 20.7030631306493, 21.12472292432638, 14.914123179965662, 20.1112875259081, 19.834610315347863, 19.77069583558037, 19.721445711913596, 19.470356891931296, 19.11382792951231, 19.589199879404287, 19.729013566305248, 19.519293035953808, 19.76927215381499, 19.9931857188393, 19.540661168991168, 19.673443715304877, 19.275096076363752, 20.671972543611492, 19.699299164744883, 19.799100929127867, 19.673443715304877, 19.92475814295086, 19.92475814295086, 19.92475814295086, 19.59949740036191, 19.729013566305248, 19.46998123441857, 19.450300164704952, 19.476541590989772, 20.181113532803455, 20.29248292239242, 20.125428838008972, 20.431145459844544, 20.125428838008972, 20.58400377076233, 20.31550165751209, 21.677541815433347, 21.453226991111002, 21.789699227594518, 20.210729337671996, 21.369845382213857, 20.114136333960175, 19.00536178489651, 19.40772126071337, 19.29614948547293, 19.519293035953808, 18.603002309079653, 20.252733152593127, 19.717179470815044, 20.442228308537803, 19.35465505195366, 20.376322463772688, 20.10914551669068, 20.06398537749724, 20.09254207415557, 19.92475814295086, 20.113515065556157, 20.07777374819772, 20.125428838008972, 20.030118658386467, 20.125428838008972, 20.125428838008972, 20.125428838008972, 19.806975107572256, 20.560746908625106, 20.572252224966157, 20.75321098303223, 21.12472292432638, 20.70013784856164, 20.942401367666296, 20.603232440919776, 20.671972543611492, 20.500122286882203, 20.365442215747787, 20.238895430984694, 20.310815363386133, 20.434406380304242, 20.29248292239242, 20.71825329612789, 20.125428838008972, 19.879295768977464, 21.12472292432638, 18.58281256615343, 18.62736032169064, 18.5159909328476, 18.683045016112164, 18.5159909328476, 18.761827101797255, 20.54183806815381, 20.33335463109293, 20.617905322399697, 19.90652859413278, 19.687628350256592, 20.125428838008972, 21.58425525345822, 15.201805169084134]}, {"children_left": [1, 2, -1, 4, 5, 6, 7, 8, 9, 10, -1, -1, 13, 14, 15, -1, 17, 18, 19, 20, -1, 22, 23, -1, -1, -1, 27, 28, -1, -1, -1, 32, 33, -1, -1, -1, 37, 38, 39, 40, -1, 42, -1, 44, 45, -1, -1, -1, -1, 50, -1, -1, 53, 54, -1, -1, -1, 58, 59, 60, 61, -1, 63, -1, 65, -1, -1, 68, 69, -1, 71, -1, -1, -1, 75, -1, 77, -1, 79, -1, -1, 82, 83, 84, -1, -1, -1, -1, 89, -1, -1, 92, 93, 94, 95, 96, -1, -1, -1, -1, 101, -1, -1, 104, 105, 106, 107, 108, 109, 110, -1, -1, -1, 114, 115, 116, -1, 118, -1, -1, -1, 122, -1, 124, -1, 126, 127, -1, 129, -1, 131, -1, -1, 134, 135, -1, -1, 138, 139, -1, -1, -1, 143, -1, -1, 146, -1, 148, 149, 150, -1, -1, -1, 154, -1, -1, 157, 158, 159, 160, 161, 162, 163, 164, -1, -1, 167, -1, -1, -1, -1, -1, -1, 174, 175, 176, -1, -1, 179, -1, 181, -1, -1, 184, 185, -1, -1, 188, 189, 190, 191, 192, -1, -1, -1, -1, 197, -1, -1, 200, -1, -1, 203, -1, -1, 206, 207, -1, -1, -1, 211, 212, -1, 214, -1, 216, -1, -1, 219, -1, 221, 222, -1, -1, -1, 226, 227, -1, -1, -1, 231, 232, 233, 234, 235, 236, 237, -1, -1, -1, 241, 242, 243, -1, -1, 246, 247, 248, -1, -1, -1, 252, -1, 254, -1, -1, 257, 258, -1, 260, -1, 262, -1, -1, -1, 266, -1, -1, 269, 270, -1, 272, -1, -1, 275, -1, -1, 278, 279, 280, -1, -1, 283, 284, -1, -1, 287, -1, -1, 290, 291, 292, -1, 294, 295, -1, -1, -1, -1, 300, -1, 302, -1, -1, 305, -1, 307, 308, -1, -1, -1, 312, -1, 314, 315, -1, 317, 318, -1, 320, -1, -1, -1, 324, -1, -1, 327, 328, 329, -1, -1, -1, 333, 334, 335, -1, -1, 338, 339, 340, 341, 342, 343, -1, 345, -1, 347, -1, 349, 350, 351, -1, -1, -1, -1, -1, -1, 358, -1, -1, 361, 362, 363, -1, 365, -1, -1, -1, 369, -1, 371, 372, -1, 374, -1, -1, 377, 378, 379, -1, -1, 382, 383, -1, -1, 386, 387, -1, -1, 390, -1, -1, -1, -1, 395, -1, 397, 398, 399, -1, 401, 402, -1, -1, -1, 406, 407, 408, 409, -1, 411, 412, 413, -1, -1, -1, 417, 418, 419, -1, 421, 422, 423, -1, -1, 426, -1, -1, 429, -1, 431, -1, -1, 434, -1, -1, 437, -1, -1, 440, -1, 442, -1, -1, 445, 446, -1, 448, -1, -1, -1, 452, 453, 454, 455, 456, 457, -1, -1, 460, -1, 462, -1, -1, -1, -1, 467, 468, 469, 470, 471, -1, -1, 474, 475, 476, -1, -1, -1, -1, 481, -1, -1, 484, -1, 486, -1, -1, 489, -1, -1, -1, 493, -1, -1], "children_right": [326, 3, -1, 311, 230, 225, 210, 91, 12, 11, -1, -1, 88, 57, 16, -1, 36, 31, 26, 21, -1, 25, 24, -1, -1, -1, 30, 29, -1, -1, -1, 35, 34, -1, -1, -1, 52, 49, 48, 41, -1, 43, -1, 47, 46, -1, -1, -1, -1, 51, -1, -1, 56, 55, -1, -1, -1, 81, 74, 67, 62, -1, 64, -1, 66, -1, -1, 73, 70, -1, 72, -1, -1, -1, 76, -1, 78, -1, 80, -1, -1, 87, 86, 85, -1, -1, -1, -1, 90, -1, -1, 103, 100, 99, 98, 97, -1, -1, -1, -1, 102, -1, -1, 205, 156, 145, 142, 113, 112, 111, -1, -1, -1, 121, 120, 117, -1, 119, -1, -1, -1, 123, -1, 125, -1, 133, 128, -1, 130, -1, 132, -1, -1, 137, 136, -1, -1, 141, 140, -1, -1, -1, 144, -1, -1, 147, -1, 153, 152, 151, -1, -1, -1, 155, -1, -1, 202, 173, 172, 171, 170, 169, 166, 165, -1, -1, 168, -1, -1, -1, -1, -1, -1, 183, 178, 177, -1, -1, 180, -1, 182, -1, -1, 187, 186, -1, -1, 199, 196, 195, 194, 193, -1, -1, -1, -1, 198, -1, -1, 201, -1, -1, 204, -1, -1, 209, 208, -1, -1, -1, 218, 213, -1, 215, -1, 217, -1, -1, 220, -1, 224, 223, -1, -1, -1, 229, 228, -1, -1, -1, 304, 277, 268, 265, 240, 239, 238, -1, -1, -1, 256, 245, 244, -1, -1, 251, 250, 249, -1, -1, -1, 253, -1, 255, -1, -1, 264, 259, -1, 261, -1, 263, -1, -1, -1, 267, -1, -1, 274, 271, -1, 273, -1, -1, 276, -1, -1, 289, 282, 281, -1, -1, 286, 285, -1, -1, 288, -1, -1, 299, 298, 293, -1, 297, 296, -1, -1, -1, -1, 301, -1, 303, -1, -1, 306, -1, 310, 309, -1, -1, -1, 313, -1, 323, 316, -1, 322, 319, -1, 321, -1, -1, -1, 325, -1, -1, 332, 331, 330, -1, -1, -1, 394, 337, 336, -1, -1, 393, 360, 357, 356, 355, 344, -1, 346, -1, 348, -1, 354, 353, 352, -1, -1, -1, -1, -1, -1, 359, -1, -1, 368, 367, 364, -1, 366, -1, -1, -1, 370, -1, 376, 373, -1, 375, -1, -1, 392, 381, 380, -1, -1, 385, 384, -1, -1, 389, 388, -1, -1, 391, -1, -1, -1, -1, 396, -1, 492, 405, 400, -1, 404, 403, -1, -1, -1, 451, 444, 439, 410, -1, 416, 415, 414, -1, -1, -1, 436, 433, 420, -1, 428, 425, 424, -1, -1, 427, -1, -1, 430, -1, 432, -1, -1, 435, -1, -1, 438, -1, -1, 441, -1, 443, -1, -1, 450, 447, -1, 449, -1, -1, -1, 491, 466, 465, 464, 459, 458, -1, -1, 461, -1, 463, -1, -1, -1, -1, 488, 483, 480, 473, 472, -1, -1, 479, 478, 477, -1, -1, -1, -1, 482, -1, -1, 485, -1, 487, -1, -1, 490, -1, -1, -1, 494, -1, -1], "feature": [4, 12, -2, 2, 9, 2, 0, 2, 9, 1, -2, -2, 8, 11, 1, -2, 9, 6, 5, 2, -2, 1, 7, -2, -2, -2, 1, 9, -2, -2, -2, 2, 1, -2, -2, -2, 9, 9, 1, 8, -2, 2, -2, 6, 5, -2, -2, -2, -2, 8, -2, -2, 8, 1, -2, -2, -2, 5, 8, 7, 9, -2, 9, -2, 11, -2, -2, 6, 9, -2, 9, -2, -2, -2, 9, -2, 9, -2, 7, -2, -2, 1, 9, 1, -2, -2, -2, -2, 11, -2, -2, 0, 8, 9, 0, 7, -2, -2, -2, -2, 0, -2, -2, 9, 9, 2, 9, 7, 8, 11, -2, -2, -2, 11, 9, 5, -2, 9, -2, -2, -2, 9, -2, 11, -2, 5, 1, -2, 9, -2, 8, -2, -2, 9, 1, -2, -2, 9, 1, -2, -2, -2, 5, -2, -2, 7, -2, 1, 8, 5, -2, -2, -2, 1, -2, -2, 8, 9, 1, 11, 11, 3, 5, 1, -2, -2, 6, -2, -2, -2, -2, -2, -2, 9, 11, 5, -2, -2, 0, -2, 8, -2, -2, 7, 3, -2, -2, 9, 2, 5, 9, 11, -2, -2, -2, -2, 9, -2, -2, 9, -2, -2, 2, -2, -2, 1, 11, -2, -2, -2, 9, 8, -2, 1, -2, 0, -2, -2, 9, -2, 6, 7, -2, -2, -2, 0, 1, -2, -2, -2, 0, 9, 3, 6, 2, 1, 11, -2, -2, -2, 2, 7, 1, -2, -2, 11, 11, 5, -2, -2, -2, 8, -2, 1, -2, -2, 1, 11, -2, 2, -2, 5, -2, -2, -2, 1, -2, -2, 